#ifndef RNN_LSTM_WEIGHT_H
#define RNN_LSTM_WEIGHT_H

#include "rnn.h"

///////////////////////////////////////////////////////////////////////////////
// LSTM0 遗忘门权值与偏置
///////////////////////////////////////////////////////////////////////////////
float Weight0_f[HIDDEN_DIM][INPUT_DIM + HIDDEN_DIM] =
{
	{2.521744e-001, 1.204112e-001, -4.671697e-002, -3.812065e-001, -2.840747e-001, -1.949922e-001, -2.168538e-001, -2.366297e-001, -3.053600e-001, -3.647774e-001,
	-1.423129e-001, 9.227770e-002, 3.577347e-001, 2.353676e-001, 4.007291e-002, -1.145130e-001, -2.110779e-001, -1.207606e-001, -1.487628e-001, -3.471379e-001,
	-2.628569e-001, -2.667462e-001, -1.474332e-001, -3.121469e-001, -3.210656e-002, -7.861336e-002, -1.310473e-001, -1.397940e-001,
	-5.476854e-002, -9.233275e-002, 1.827085e-001, -1.776645e-002, 9.978840e-003, 1.162299e-001, 2.102454e-001, -3.239622e-001, 1.123283e-001, -1.320547e-001,
	3.198846e-002, 1.143052e-001, -1.223350e-003, 4.210619e-002, 4.484592e-003, -2.047620e-001, 1.807936e-001, 9.212040e-002, -4.591571e-002, 7.700115e-002,
	1.397416e-001, 3.442552e-002, -1.312123e-001, 5.250769e-002, -5.598666e-002, 1.683378e-001, 2.056731e-002, -1.690267e-001, 1.943444e-001, 1.866882e-001,
	2.878301e-001, -9.757980e-002, -2.065926e-002, 3.573953e-001, 1.407179e-001, 9.318353e-002, 2.249791e-001, 1.460994e-001, -2.838936e-002, 9.562530e-002,
	-1.050373e-001, 6.084993e-002, 2.937217e-002, 6.579962e-002, -2.437175e-002, -5.991543e-002, -2.589286e-002, 6.107249e-002, 1.807835e-001, 1.373045e-001,
	4.451641e-002, 1.433698e-001, 4.041660e-002, -1.869183e-001, -3.039653e-001, 2.272877e-001, 3.959736e-002, 1.026522e-001, -1.406071e-001, -1.251345e-001,
	-3.136639e-002, -1.430235e-001, -1.147798e-001, 5.450159e-002, -5.082720e-002, 2.087838e-002, -9.562473e-002, 8.553843e-002, 1.553283e-001, 5.073455e-002,
	1.543811e-001, -8.464654e-002, -2.018446e-001, 5.146087e-002, 3.122315e-001, 1.166255e-001, -2.006619e-001, 3.001901e-002, 1.769654e-001, -1.160068e-001,
	-1.030695e-001, 1.861748e-001, 8.113430e-002, -1.478899e-002, 8.781904e-002, 1.619668e-002, -3.068126e-002, -9.261697e-003, -7.701547e-002, -6.096252e-002,
	1.175869e-001, 1.315261e-001, -7.276609e-002, 3.995525e-002, 1.794068e-001, -2.787899e-003, 5.754130e-002, -1.625022e-001, -2.171890e-002, -1.490075e-001,
	-1.594287e-001, 1.453211e-001, -2.117468e-001, -9.160969e-002, -7.535730e-002, -1.937754e-002, -2.494657e-001, 4.017241e-002, -3.243805e-002, 2.832698e-001,
	8.190405e-002, 1.305205e-001, 7.199538e-002, -2.564443e-002, 7.947434e-002, 2.369773e-002, 1.691641e-001, 2.199193e-001, 1.899191e-001, 3.314244e-002,
	-1.106628e-002, -7.572222e-002, 9.831271e-002, -9.209378e-003, -1.849058e-001, 9.396528e-002, -3.765477e-002, 1.671619e-002},

	{-6.805138e-002, -1.674828e-001, -1.030085e-001, 7.827936e-002, -7.542957e-002, -1.837931e-001, -2.048705e-002, -9.988356e-002, -7.830577e-002, 2.163900e-001,
	2.307979e-001, 1.685050e-001, 9.248188e-002, -8.020367e-002, -1.590742e-001, -1.266986e-001, 8.557723e-002, 1.976849e-001, 3.163725e-001, 3.262559e-001,
	8.058921e-002, -9.948038e-003, -2.840056e-001, -8.346602e-002, -2.211326e-001, -3.370291e-001, -2.648974e-001, -1.034368e-001,
	4.383568e-002, -2.286971e-001, -2.264990e-002, -1.544350e-002, 1.054634e-001, 2.498830e-002, -1.803862e-001, 8.820919e-002, 1.927912e-001, 7.946526e-002,
	2.487367e-002, -8.461304e-002, -9.679766e-002, -7.308097e-002, 1.306327e-001, -1.561468e-001, -6.960965e-002, 1.184181e-001, -2.813639e-002, 1.420383e-001,
	4.575548e-002, 6.902045e-002, -1.450302e-001, -1.656925e-001, -2.666674e-002, -1.413626e-001, -1.640471e-002, 1.572564e-002, 1.678644e-002, -6.284408e-003,
	1.240401e-001, -1.813370e-002, -1.375190e-001, -1.463457e-001, -1.457872e-002, 1.708778e-001, -1.699600e-001, 1.660532e-001, -2.212675e-001, -1.926584e-001,
	1.696084e-002, 2.271849e-001, -9.778512e-002, 5.282299e-003, -7.745434e-002, -4.210588e-002, 7.046830e-002, 2.296063e-002, -6.209584e-002, -9.020337e-002,
	-3.000188e-002, 1.371891e-001, 4.940291e-002, -1.529543e-001, 1.114101e-001, -2.244853e-001, -1.282004e-001, -4.412724e-002, 1.379403e-001, -2.081852e-001,
	-1.637915e-001, -7.890614e-002, 1.543665e-001, 3.552257e-002, -1.715092e-001, 4.241921e-002, -2.248008e-001, 1.226255e-001, -2.317604e-002, 1.846602e-001,
	1.262849e-002, -1.543133e-001, 1.559041e-001, 1.089207e-001, 5.123780e-003, 4.136065e-002, -1.343127e-001, -1.905117e-001, 1.290671e-001, 4.933768e-002,
	-6.584235e-002, -5.432849e-002, 1.330630e-001, 1.830961e-001, -4.873400e-002, -5.862091e-002, -1.731962e-002, -1.068151e-001, 1.658224e-001, -7.195787e-002,
	1.961837e-001, -4.732547e-002, -9.567698e-003, -4.420340e-002, 2.013946e-001, 1.370246e-001, -1.594141e-001, -1.462721e-001, 7.935081e-002, 1.054768e-001,
	4.350820e-002, 1.135639e-001, -8.824923e-002, -1.472188e-003, -1.742794e-001, 1.477177e-001, 2.864196e-001, 1.091209e-001, 2.492767e-001, -1.577948e-001,
	-1.229426e-001, -2.821126e-001, -9.572421e-002, -1.913519e-001, 8.548244e-002, 6.619433e-002, -2.624120e-001, -1.192004e-001, 4.343133e-002, 7.539870e-002,
	-7.192731e-002, -2.149839e-001, -1.338233e-001, 1.147933e-001, -1.215583e-001, -3.984988e-002, -1.435936e-001, 3.599108e-001},

	{-9.899544e-002, -1.202650e-001, -2.490927e-001, -1.276333e-001, 1.647284e-001, 2.707635e-001, 2.460240e-001, 1.439121e-001, 1.501783e-003, 3.341250e-002,
	5.285626e-002, 1.031651e-001, 4.016846e-002, -7.404855e-003, -7.303265e-002, -1.547294e-001, 2.394394e-003, 2.011358e-002, 8.730155e-002, 7.142380e-002,
	8.319084e-002, 1.608293e-001, 8.561717e-002, 2.000070e-001, 9.980246e-002, 3.930046e-002, 4.344824e-002, -2.741572e-003,
	-2.068646e-001, -1.627638e-001, 2.363211e-001, 1.163995e-001, 1.099040e-001, 1.574915e-001, 2.211077e-001, -9.692030e-002, 2.451284e-001, 2.249198e-001,
	-5.905438e-002, 4.798977e-002, -2.675162e-002, -1.248830e-001, -1.866992e-001, -2.875693e-001, -2.408571e-001, 1.155944e-001, -1.498742e-001, 2.114456e-001,
	-1.638240e-001, 5.978943e-002, -2.857525e-001, 1.828245e-001, -6.220229e-002, -3.651994e-003, 1.603592e-001, 9.926862e-002, 6.582987e-002, 5.789826e-002,
	2.778842e-001, 2.824257e-001, -8.081052e-002, -1.360039e-001, 3.202256e-003, 2.012767e-001, 1.134233e-001, -1.156076e-001, -1.202931e-001, 4.761064e-002,
	-2.368419e-002, -4.848448e-002, 1.102367e-001, -2.890402e-002, -3.116645e-002, -9.704052e-003, -1.508918e-002, 1.402081e-001, -1.838806e-001, 9.814030e-002,
	1.808200e-002, -2.758567e-001, -1.347855e-001, 1.345057e-001, 1.096942e-001, 1.835416e-001, 2.890205e-001, -2.008823e-001, -1.880113e-001, -1.032790e-001,
	-8.606864e-002, 4.272737e-002, 6.390667e-003, -4.859079e-002, -1.385800e-001, 1.157155e-001, 4.459107e-002, 8.343573e-002, -1.627398e-001, 1.962617e-001,
	1.778682e-001, -9.373184e-002, 2.829857e-002, 5.774296e-003, 2.463468e-001, 2.206066e-001, -9.211691e-002, -1.593555e-001, -4.017983e-002, 1.679927e-002,
	1.023276e-001, 2.034069e-001, -5.624388e-002, 1.246954e-001, 7.454796e-002, -7.193198e-002, 4.242035e-002, -9.451507e-002, -4.740093e-003, -1.282627e-001,
	-1.291263e-001, 3.315917e-001, 4.183620e-002, 1.676278e-001, 2.654672e-001, 2.375443e-003, -4.212334e-002, -2.523512e-001, 1.383294e-001, 1.581589e-001,
	-2.250941e-001, 1.687419e-001, -2.857831e-001, -6.121653e-002, -1.157563e-001, -1.122718e-001, 1.755496e-001, -8.442260e-002, -1.231614e-001, 2.174764e-001,
	1.479873e-001, 1.357336e-001, -5.206600e-002, -2.130640e-001, 3.202187e-002, -1.234222e-003, -6.425490e-002, -6.983461e-004, 3.354969e-001, 5.634686e-002,
	-6.581547e-002, -7.391633e-003, 8.851669e-002, 1.240988e-001, -1.324745e-001, -2.115267e-002, -2.232605e-001, -6.607083e-002},

	{-1.810353e-001, 1.249589e-001, 5.073604e-002, -1.480582e-001, -1.773414e-001, 9.137294e-002, 9.400730e-002, 1.728724e-001, 1.057579e-001, 4.501124e-002,
	-4.425276e-002, -2.746491e-001, -1.449718e-001, -1.406241e-001, 1.092650e-001, 1.163965e-001, 5.154589e-002, -3.495032e-002, -6.333065e-002, -4.025413e-002,
	-1.614651e-001, -1.905701e-001, -2.263167e-001, -1.476884e-001, -1.432742e-001, -1.829636e-001, -2.933915e-001, -1.729201e-001,
	3.186182e-002, 1.171428e-001, 2.719105e-001, 1.351191e-001, 3.565567e-003, 3.290323e-002, -9.293296e-002, -8.526891e-002, -1.035491e-001, 2.696654e-001,
	1.882303e-002, -1.446720e-001, -7.120480e-003, -1.779057e-001, 1.175755e-001, -1.665055e-001, 2.560891e-001, 1.275723e-001, 2.314162e-001, 9.312098e-002,
	-2.985146e-001, 9.919546e-002, -1.228939e-001, 2.414534e-001, 6.629140e-002, 6.588883e-002, -2.783369e-001, 1.365338e-001, 2.604916e-001, 1.576234e-001,
	-1.256088e-001, 1.910427e-001, 6.174768e-002, -9.961317e-002, -8.599233e-003, 1.212864e-001, 4.215010e-002, 2.739507e-002, -4.524411e-002, 3.256593e-001,
	2.009608e-002, -2.763069e-001, 1.954862e-002, -2.574645e-001, -2.009987e-002, -1.423509e-001, 4.670083e-002, 1.559426e-001, -1.124976e-001, -4.453961e-002,
	-1.761886e-001, 1.033728e-001, -2.235178e-001, 2.065132e-001, -1.892468e-001, 2.570778e-001, 1.652345e-002, -3.129020e-001, 1.722865e-002, 4.860223e-003,
	-1.460551e-001, -3.014522e-001, -2.783138e-002, -1.272115e-001, -1.545606e-001, 1.214434e-001, -1.172392e-001, -1.413285e-002, 7.982863e-002, 3.689453e-002,
	-2.023805e-001, -8.112799e-002, -1.092445e-001, -2.791010e-001, -3.448649e-002, 3.521714e-001, -2.160667e-001, 1.857439e-001, -7.909650e-002, 1.242652e-001,
	1.787002e-001, -1.359854e-001, 2.124985e-001, -3.327119e-001, 4.558825e-002, -1.711874e-001, 9.424618e-002, -1.087377e-001, 9.432710e-002, -5.089746e-002,
	-7.678628e-002, 1.881206e-001, -7.104418e-002, 8.272913e-003, 1.307226e-003, -3.112476e-001, -7.344978e-002, 7.027810e-003, -2.240433e-002, 2.116904e-001,
	2.351112e-001, 1.620393e-001, -7.618071e-002, 1.116984e-001, -2.976143e-001, 2.956266e-002, -3.265776e-001, -3.256557e-002, -1.352587e-002, -5.010454e-002,
	-1.154057e-001, 2.956815e-001, 3.658953e-002, -1.574406e-001, 3.130671e-001, -2.591146e-001, -5.833767e-002, 4.151865e-002, -1.691941e-001, 6.427930e-002,
	-5.606034e-002, -2.048742e-001, -1.106285e-001, 9.410466e-002, -9.955852e-002, 2.640449e-002, -1.360413e-001, 2.720648e-003},

	{3.351840e-002, 8.667184e-004, -7.882661e-002, -1.265023e-001, -2.839676e-001, -9.222204e-002, 6.010731e-002, 1.452425e-002, 4.596705e-002, 1.477392e-001,
	4.663258e-002, -3.659804e-002, 1.135457e-001, 1.448810e-001, 4.974946e-002, 2.213503e-002, -2.197440e-002, 2.523293e-002, -7.767785e-002, -3.394936e-001,
	-5.567017e-001, -2.581053e-001, -2.439775e-001, -3.071978e-001, -2.739327e-001, -4.091759e-001, -1.575039e-001, 2.184388e-001,
	2.268049e-001, -6.346201e-003, 1.525468e-001, -9.357311e-002, -1.307503e-001, -1.061885e-001, -2.861027e-002, 1.189742e-001, -9.148964e-002, 6.907764e-002,
	3.005560e-002, -1.853806e-003, 5.427352e-002, -1.876748e-001, 2.508605e-001, -8.340564e-002, 3.516890e-002, -3.712587e-002, 1.164055e-001, 1.093958e-001,
	5.293296e-002, -1.226911e-001, -3.477927e-002, 9.521129e-002, -6.635758e-002, 7.248521e-002, -1.520798e-001, -1.600436e-001, 2.999270e-001, 1.199769e-001,
	3.536667e-002, -7.708015e-002, -2.815693e-002, 2.471952e-003, 1.041974e-001, 3.614835e-002, 1.355756e-002, -8.011323e-002, -1.260007e-001, 2.259238e-002,
	6.218519e-002, -4.946489e-002, -3.984290e-002, 2.760361e-002, -1.084257e-001, -5.984376e-002, -6.719519e-002, -1.180507e-001, -1.743793e-001, -1.054849e-001,
	1.008211e-001, -8.065600e-002, -1.761038e-001, -9.766514e-002, -1.324448e-002, -1.028145e-003, 8.209274e-002, -1.136449e-001, -1.880066e-001, 2.792687e-002,
	-1.596060e-001, -3.701071e-002, -1.730002e-001, -5.013748e-002, -3.571596e-002, -6.215040e-002, -1.632497e-001, 9.916435e-002, 1.372756e-001, 1.085777e-001,
	1.600730e-001, 6.306531e-002, -9.676857e-002, 1.700150e-003, 3.668566e-002, 1.202230e-001, -8.182178e-002, 1.885307e-001, -4.107086e-003, -1.201901e-001,
	4.203373e-002, -6.032195e-002, -7.673047e-002, 5.479720e-002, -2.204238e-002, 1.167281e-001, 4.689266e-002, -9.023908e-002, 1.141429e-001, 7.403421e-002,
	1.411810e-001, 2.622221e-002, -1.816839e-001, -1.810960e-001, 9.764540e-003, 3.961005e-002, -4.213709e-002, 3.120654e-002, -1.348394e-001, -1.021951e-001,
	-1.312559e-001, 1.664417e-001, -4.968090e-002, -1.301798e-001, -4.523687e-003, 5.096563e-002, -2.569359e-002, -7.156739e-002, 2.605520e-001, -3.877321e-002,
	-6.590801e-002, -6.255205e-002, 5.707724e-002, -2.142046e-001, 1.184326e-001, -1.485029e-001, -1.178421e-001, 3.962132e-002, -5.968979e-002, 2.552006e-001,
	-2.214638e-002, -8.768582e-002, 9.616381e-002, 1.586320e-002, -1.513119e-001, -5.981121e-002, -2.054761e-002, -6.813667e-002},

	{5.089039e-002, 3.565595e-001, -1.437612e-001, -4.270415e-001, -4.283588e-001, -2.014455e-001, -2.928852e-001, -3.590457e-001, -2.493654e-001, -5.603856e-002,
	2.683692e-001, 1.989479e-001, 3.923378e-002, -2.699750e-001, -1.699079e-001, 3.954129e-002, 1.345869e-001, 1.383211e-001, -3.093452e-001, -6.946536e-001,
	-7.702268e-001, -7.572162e-001, -4.712518e-001, -1.417232e-001, 1.088192e-003, -5.080106e-002, 2.947271e-001, -5.758246e-002,
	3.892853e-002, -1.613358e-001, 3.195011e-001, 1.093593e-001, -5.708196e-002, 6.131928e-002, 1.504315e-001, 2.100432e-002, 7.198655e-002, 1.037160e-002,
	-5.853992e-002, 4.225974e-003, 1.456950e-001, -1.297402e-001, -1.700400e-001, -2.060237e-001, 9.009954e-002, -1.113703e-001, -7.717250e-002, 2.238032e-001,
	-7.130049e-002, 1.718307e-001, -2.229964e-001, 1.645539e-001, -2.064267e-001, 1.272706e-001, -1.386567e-001, 1.466547e-001, 2.432725e-001, 1.271017e-001,
	1.696869e-002, 3.880391e-002, -7.262792e-002, -9.417739e-003, 1.619924e-001, 2.855437e-002, -9.558067e-002, 2.463465e-001, 8.535255e-003, 6.439007e-002,
	2.556685e-002, -5.040537e-002, 1.515728e-002, -1.005042e-002, -5.638936e-002, 2.754017e-002, -1.271583e-001, -4.664144e-002, -1.743503e-002, 5.381302e-002,
	-2.079312e-003, -6.211841e-002, -8.137584e-002, 7.742022e-002, 3.438596e-002, 7.303590e-002, 9.346934e-002, -3.893383e-002, 1.273013e-001, -1.467672e-001,
	-1.643672e-001, -1.410516e-002, 7.284195e-002, 1.630964e-002, -1.343849e-001, 1.377023e-001, -1.401636e-001, 7.810348e-002, 1.628108e-001, 1.324860e-001,
	-1.214613e-004, 4.392757e-002, -1.989281e-001, -6.980586e-002, 3.564277e-001, 2.968723e-002, -6.993827e-002, -3.040744e-001, -1.404823e-004, -5.607456e-002,
	-3.289629e-002, 1.573138e-002, 1.238717e-001, -5.145325e-002, 1.388977e-001, 7.532917e-002, 1.508203e-001, 3.024375e-002, 3.431154e-002, -2.881224e-001,
	3.854907e-002, 2.880502e-001, -8.653203e-002, 1.072481e-001, 3.555236e-002, 1.366121e-001, 1.178538e-001, -3.452520e-002, -1.755695e-001, -8.725236e-002,
	8.678357e-002, 4.960934e-002, -2.128920e-001, -8.056505e-002, -3.049908e-001, 1.024665e-001, -5.513991e-002, 6.509921e-002, -4.513651e-002, 1.748790e-002,
	2.292213e-002, 3.991665e-002, -5.975753e-002, -3.034932e-001, 4.846635e-002, 7.685967e-002, -7.529851e-002, 8.097009e-002, 5.721331e-002, 1.516783e-001,
	1.221167e-001, -1.672028e-001, -1.581492e-001, -1.036466e-002, -1.946778e-001, 2.053893e-002, -1.335767e-001, 1.856861e-003},

	{1.474827e-001, 6.251818e-002, -1.394864e-001, -1.753834e-001, -1.096933e-001, -8.251484e-002, -5.056068e-002, 3.870440e-002, 2.435045e-001, 2.726573e-001,
	1.024151e-002, -2.866879e-002, 1.168918e-001, 1.528998e-001, 1.187037e-001, 1.376080e-002, -1.900647e-001, -2.109092e-001, -2.049048e-001, -1.406831e-002,
	1.081436e-001, 2.104500e-001, 3.771679e-002, -6.897086e-002, -6.173372e-002, -3.479950e-001, -4.234707e-001, -1.258651e-001,
	7.568009e-002, -5.330530e-002, -4.410410e-002, -1.576629e-001, 9.429868e-002, 6.718738e-002, -9.076755e-002, 6.430667e-002, -2.332511e-002, -4.832259e-002,
	-3.394022e-002, 4.424868e-002, -4.232350e-002, -9.173740e-002, -1.017374e-001, -1.997088e-002, -1.826337e-001, 2.205127e-002, -8.504789e-002, 5.162051e-002,
	-4.947928e-002, -6.899454e-002, 1.357635e-001, -4.143727e-002, -1.141735e-002, 4.951734e-002, 7.027305e-002, -2.873073e-001, 1.247373e-001, 1.329849e-002,
	-4.207102e-001, -8.094486e-002, 5.459746e-002, 1.096506e-001, 7.124862e-002, 1.763272e-001, 7.326830e-002, -1.567488e-001, -1.163419e-001, -1.770644e-002,
	-1.226685e-001, -1.870922e-001, 8.730923e-002, -1.292670e-001, -1.131341e-001, -2.427419e-001, -5.060725e-002, -4.510423e-002, -9.322830e-002, 1.156662e-002,
	3.494319e-002, -7.571030e-002, 2.702998e-002, 4.157143e-002, 1.910208e-001, -8.781701e-002, -6.847887e-002, 1.114195e-001, -6.822702e-002, 7.627884e-002,
	2.844386e-001, -2.293051e-002, 2.146611e-001, -5.845809e-002, 1.924959e-001, -3.046066e-002, -1.042704e-001, 1.511537e-001, -1.262749e-001, 2.680158e-002,
	-1.775311e-001, -1.609141e-001, -1.126306e-002, -9.185888e-002, -2.094963e-001, 1.168423e-001, -6.298000e-002, 3.384547e-002, 8.246776e-002, -9.188211e-002,
	9.578266e-002, 9.255418e-002, 9.254386e-002, -4.177461e-002, -4.763239e-002, 2.387228e-002, -1.634016e-001, -1.979915e-001, 1.338673e-001, 1.903478e-001,
	1.838359e-001, 5.131113e-002, -8.684789e-002, 1.235673e-001, -7.222869e-002, -1.147595e-001, -1.542205e-001, -2.896116e-001, 3.396286e-002, 8.210545e-002,
	-3.206798e-001, 2.326548e-001, -1.418734e-001, -5.187109e-002, -8.295543e-002, 4.516810e-002, -1.386298e-003, -3.265266e-001, -1.842333e-002, 1.005081e-001,
	4.444979e-002, 6.167099e-002, 1.329044e-001, -1.129939e-001, 8.104416e-002, 8.095601e-002, -1.744154e-001, 2.561027e-003, -2.761195e-002, 1.363079e-001,
	2.250982e-003, 1.069511e-001, 4.008001e-003, 2.611810e-002, -1.410514e-001, -9.818390e-003, -1.797515e-001, 1.746761e-002},

	{-4.956767e-003, 1.861431e-001, -4.419529e-002, -2.958884e-001, -3.769530e-001, -1.275973e-001, 1.889941e-002, 4.924168e-002, 8.072284e-002, 3.731151e-002,
	1.688175e-001, 6.829373e-002, 4.355608e-003, -1.264969e-002, 1.324969e-001, 1.694832e-001, -4.713001e-003, -6.573578e-002, -1.385149e-001, -5.046212e-001,
	-2.446243e-001, -1.825332e-001, -8.926162e-002, -8.050131e-002, 7.508716e-002, -1.803731e-001, -1.659670e-001, -9.293932e-002,
	2.114001e-001, -1.003684e-001, 7.861789e-002, -1.410192e-002, 4.884099e-001, -1.494613e-001, 2.472412e-002, 1.154778e-002, 6.122338e-002, -3.699206e-002,
	-2.813001e-002, -1.709221e-002, 1.925483e-001, -1.195406e-002, -1.215847e-002, -1.358868e-001, 1.448163e-001, 9.441061e-002, 1.245609e-001, 2.088523e-001,
	2.847606e-001, 1.968056e-002, -1.844273e-002, -3.086852e-002, 1.522249e-001, 4.127570e-002, -5.728893e-002, 2.652319e-002, 5.659562e-002, 1.261621e-001,
	-1.417608e-001, -9.039362e-002, -9.137821e-002, -1.394053e-001, 2.020769e-002, -3.174409e-002, -1.620273e-002, 2.014038e-001, 8.931880e-002, 2.939992e-002,
	-1.474348e-001, 3.013778e-001, 4.249713e-002, -2.449256e-002, 3.260379e-002, -5.800527e-002, 2.828165e-001, 1.545184e-001, 1.634212e-002, -9.926953e-002,
	-7.582979e-002, -5.712523e-002, 8.615313e-002, -1.904257e-001, 5.611104e-002, -1.494483e-001, -7.561551e-002, -7.484856e-002, 2.430657e-001, -1.737208e-001,
	-1.462289e-001, -5.959468e-002, -2.422445e-002, -1.579228e-001, 7.879808e-002, 1.992184e-002, -1.999767e-001, -1.550279e-002, 2.644648e-002, -5.119671e-002,
	-3.439025e-004, 6.778928e-002, -4.741079e-002, 1.508566e-001, 2.932794e-002, -3.397522e-002, -1.101656e-002, 4.144456e-002, -3.759585e-002, -1.411022e-001,
	-7.979430e-002, 6.895318e-002, 4.665438e-003, -1.121998e-001, -1.895158e-001, -1.115755e-001, -6.340542e-002, -6.372276e-002, 1.543248e-001, -1.246792e-001,
	-9.010743e-003, -1.677912e-001, 9.983405e-002, -2.340645e-001, -1.675568e-001, 2.331877e-001, 1.814586e-002, 2.008725e-001, 1.874127e-001, -1.132657e-001,
	-1.056383e-001, -2.944078e-001, 1.052366e-001, -1.757778e-001, 6.051606e-002, -8.058479e-003, 8.011758e-002, 2.233007e-001, 2.512242e-001, -1.763491e-001,
	-8.656187e-002, -5.987167e-002, 6.962015e-002, 5.869694e-002, -6.244700e-002, 7.663720e-002, -1.842140e-001, -4.791594e-002, 1.718934e-001, -5.775349e-002,
	8.484339e-002, -8.965338e-002, 4.247431e-002, 2.028315e-001, 9.906051e-002, 7.935751e-002, -8.451734e-002, -7.014067e-002},

	{-1.179105e-001, 1.671564e-001, 4.170776e-002, -3.311350e-001, -1.072374e-001, 2.572285e-001, 2.527024e-001, 1.935756e-001, 1.134550e-001, 7.939384e-002,
	-1.944938e-001, -1.994436e-001, -1.237514e-001, 5.161880e-002, 6.016327e-002, 2.502485e-002, 9.344502e-002, 9.521708e-002, -1.821268e-002, -4.455926e-002,
	-5.681087e-002, -4.807383e-002, -5.369050e-002, -1.182888e-001, -2.885742e-002, 2.235128e-002, -4.524329e-002, 5.681434e-002,
	2.291376e-001, 5.874148e-002, 3.403679e-002, -1.066310e-001, 1.310103e-001, -2.063648e-001, -1.983881e-002, 5.908453e-002, 1.382746e-002, -6.012506e-002,
	1.330287e-001, -1.132138e-001, 1.673843e-001, -1.518314e-001, 1.016572e-001, -1.085257e-001, 6.194897e-002, 2.827502e-001, 2.508009e-001, 6.405872e-002,
	5.456073e-002, 7.807533e-002, 4.197966e-002, 2.380217e-001, 8.518720e-002, -3.940726e-002, -4.721585e-002, 2.089240e-001, 1.816007e-001, -1.623536e-001,
	-2.532170e-001, 9.833813e-002, -1.168342e-003, -7.495368e-002, -1.681365e-001, 5.869627e-002, -1.599765e-001, 1.989923e-001, -2.222846e-002, 4.559680e-002,
	-4.321512e-002, -1.371572e-001, 1.393161e-001, -6.059678e-002, -5.484670e-002, -1.502692e-001, -1.497623e-002, -1.179531e-001, -1.053193e-001, -1.324087e-001,
	-2.980787e-001, -6.528847e-003, -5.420819e-002, 3.061382e-002, -6.819027e-002, 1.191162e-001, -7.939452e-002, -1.958288e-001, 1.573024e-001, -6.715481e-002,
	4.761697e-002, -6.583411e-002, 7.037742e-002, -1.110036e-001, 7.789903e-002, 9.660835e-002, -1.407394e-001, 2.384684e-002, 1.001684e-001, -1.038336e-001,
	-2.749003e-003, -1.494619e-001, 4.245411e-002, -1.191503e-001, -1.683647e-002, -7.694332e-002, 7.785619e-002, 9.558721e-002, -4.325995e-003, -9.219485e-002,
	1.356577e-001, -7.410008e-002, 3.923604e-002, -2.620587e-001, 8.605178e-002, -9.992299e-002, -3.132474e-002, -2.193728e-001, -5.594160e-002, -1.142772e-001,
	-1.040538e-002, 2.119323e-002, 2.424106e-002, 7.963531e-002, 6.137973e-002, -1.427704e-002, -4.146410e-003, -5.132011e-002, -1.411176e-001, 5.819926e-002,
	1.955976e-001, -6.541528e-002, -7.285541e-002, -1.025480e-001, -3.046308e-001, 9.984276e-002, -1.455344e-001, 1.077953e-001, -2.575486e-002, 1.893592e-001,
	-2.521379e-001, 1.252493e-002, -5.009066e-002, -9.163858e-002, 1.740696e-001, -1.468235e-001, -6.971344e-002, -1.906065e-001, -9.010036e-002, -2.809706e-002,
	-1.381238e-001, -1.279015e-001, -1.258471e-001, 2.246927e-001, -9.022248e-003, -5.544446e-002, 5.498119e-002, 1.629070e-001},

	{-5.062608e-002, -1.208122e-001, -2.082995e-001, -3.382086e-001, -3.415100e-001, 1.047023e-001, 1.001048e-001, 1.725979e-001, 1.404443e-001, 1.927845e-001,
	2.195352e-001, -1.120335e-002, -2.158724e-001, -8.334709e-002, 3.411765e-002, -2.261785e-002, -2.335579e-001, -3.599441e-001, -2.737509e-001, -1.944963e-001,
	-9.111982e-002, -2.276769e-002, -5.288724e-002, 1.066336e-001, 1.449764e-001, 9.552211e-004, -1.948308e-001, -1.658134e-001,
	-8.130883e-002, -1.180243e-001, 9.101788e-002, -7.197287e-002, -9.383859e-002, 8.901273e-002, -3.688787e-002, -5.487919e-003, 4.020016e-002, 1.397583e-001,
	2.179665e-001, 3.740462e-003, -3.698154e-002, -5.433635e-002, -6.217803e-002, -1.281090e-001, 1.297887e-001, 2.808470e-001, 1.015483e-001, 2.060104e-001,
	-6.701656e-003, 2.720679e-001, -7.322799e-002, -2.110102e-001, 2.688781e-002, -1.522252e-001, 6.505254e-002, -2.464527e-002, 1.148778e-001, 4.262282e-001,
	8.184824e-002, 2.465819e-001, -1.660774e-001, 1.094375e-001, -6.038122e-002, 3.857987e-002, 1.118869e-001, 1.105596e-001, 6.669235e-002, -9.495794e-002,
	-1.953387e-001, 7.428663e-002, -6.849947e-002, 8.871721e-002, -8.352719e-002, -1.952442e-001, 1.096607e-001, 1.198739e-002, -2.357660e-001, -1.613133e-001,
	-6.727333e-002, 4.542511e-004, 1.006903e-001, 9.627645e-002, 2.854699e-002, -5.142710e-002, -9.231196e-002, -2.315437e-002, -6.693117e-002, -1.442377e-001,
	-2.165090e-001, 1.755149e-001, -4.732928e-002, -3.419282e-002, -2.593476e-001, 2.275743e-002, -9.696463e-002, -3.229331e-003, 1.623762e-001, 3.314802e-001,
	1.384273e-001, -3.432478e-002, 8.928616e-002, -4.702465e-001, 1.356366e-001, -7.738956e-002, -1.549494e-002, -1.069881e-001, 2.451298e-001, 2.303381e-001,
	-3.121534e-002, 6.108001e-002, 4.076720e-002, 2.060169e-001, 1.729516e-001, -3.739598e-002, 1.795833e-001, -2.028784e-001, 1.858553e-001, -4.483072e-002,
	2.527763e-001, 8.523900e-002, -2.492004e-002, -7.874191e-002, 1.400643e-001, -9.028196e-002, -1.571142e-001, -2.510494e-001, -1.122613e-001, 3.356365e-002,
	-9.128008e-003, 1.267930e-001, 2.195935e-001, 2.488823e-003, -2.172064e-001, 1.024691e-001, -1.050311e-001, -1.849658e-001, -7.632737e-002, 8.197106e-002,
	-2.373294e-002, -8.602849e-002, 8.328377e-002, -1.488449e-001, 1.099125e-001, -4.292784e-002, -1.519755e-001, -5.583718e-003, 1.701933e-001, 2.973993e-001,
	-1.112929e-001, -1.043871e-001, -1.462297e-001, 9.975772e-002, -7.081126e-002, -6.672010e-002, -1.118342e-001, 3.223722e-001},

	{-2.189928e-001, 1.535146e-001, -3.345832e-001, -2.869989e-001, -7.167925e-002, 4.216750e-002, 1.278908e-001, -1.532654e-002, -9.434926e-002, -1.891111e-001,
	-2.520494e-002, 1.403850e-001, 6.481501e-002, -3.537457e-002, -8.704411e-003, 1.042972e-001, -1.115038e-002, 4.821277e-002, 3.502356e-002, -3.580790e-002,
	7.027005e-002, 6.478196e-003, 9.885316e-002, 1.972836e-001, 3.556993e-002, 1.394778e-001, 9.888116e-002, -1.224701e-001,
	2.007577e-001, -1.071072e-001, -7.333176e-002, -6.507912e-002, -2.367610e-001, -1.663123e-001, 9.919272e-002, 1.320165e-001, -3.667639e-002, -2.555442e-002,
	1.657204e-001, -1.596387e-002, 8.913970e-002, -8.133285e-002, 7.010289e-002, -3.738932e-002, -5.252003e-002, 2.187231e-002, 8.385842e-002, 1.958079e-001,
	1.329004e-001, -1.280789e-002, -4.279949e-002, 2.023581e-001, 2.117017e-002, 1.208705e-001, 1.835136e-001, 1.192861e-001, -2.547336e-002, -9.805079e-002,
	-8.218969e-002, 9.927498e-002, -1.030639e-001, 2.048960e-002, -9.138013e-002, 2.571996e-002, 1.063347e-002, -6.881642e-002, -1.706097e-002, -1.321646e-001,
	-9.365244e-002, -2.580388e-002, -1.717370e-001, 5.038047e-002, -1.263907e-002, -9.882047e-002, -1.370864e-001, -4.637455e-002, -1.421636e-001, -1.120088e-001,
	-7.633545e-002, 1.098301e-002, 3.986343e-002, -3.990119e-002, 2.199562e-001, 9.711360e-002, -3.530340e-002, 1.643319e-001, -1.226967e-001, 4.146771e-003,
	-1.420983e-001, 6.926328e-002, 9.374279e-002, -6.946568e-003, -7.838256e-002, 1.543625e-001, -1.445184e-001, -2.230909e-002, -6.904411e-002, -9.949234e-003,
	1.978451e-001, -1.459599e-002, -9.727682e-003, 2.594573e-001, -4.726340e-002, -1.095233e-001, -1.542586e-002, 1.671835e-002, -2.917740e-002, -1.241315e-001,
	1.744307e-002, -1.397908e-001, 1.457799e-002, -6.965128e-003, 5.467657e-002, 1.191470e-001, -7.388490e-002, 1.577023e-003, -1.336185e-001, 3.369703e-003,
	-2.298643e-001, -1.465452e-001, -2.848524e-001, 7.232487e-002, -7.810543e-003, 1.740224e-002, -5.177242e-002, 1.605397e-001, -2.982772e-002, -3.175187e-002,
	1.395624e-001, 5.738942e-002, -2.080424e-001, -2.302327e-001, -1.498564e-001, 2.585872e-002, 1.939809e-001, 1.116181e-001, 7.476989e-002, -2.313890e-001,
	-1.173229e-001, -2.405844e-002, -1.199518e-001, -3.446977e-003, 1.025334e-001, 6.797192e-002, 9.227195e-002, -6.419101e-002, 1.977676e-001, 1.678858e-001,
	1.207738e-001, -2.440650e-001, -7.937034e-002, 2.169973e-002, 1.054009e-001, 9.380331e-003, 1.038821e-001, -2.518478e-002},

	{-2.988381e-001, -9.557045e-002, -1.630700e-001, -1.339660e-001, -9.601746e-002, -2.366898e-001, -8.202204e-002, 2.692794e-002, 1.545167e-002, 6.963973e-002,
	1.195078e-001, -8.693840e-002, -7.661942e-002, -1.374823e-001, 6.994873e-002, 1.473995e-002, 1.293568e-001, -1.031238e-001, 1.932123e-002, -1.859082e-001,
	-2.508410e-001, -1.546065e-001, -3.796189e-001, -4.896337e-001, -3.811459e-001, -4.851592e-001, -2.919957e-001, -3.037201e-001,
	1.994321e-001, -3.725837e-001, 2.060290e-003, 6.035685e-002, -4.006029e-002, -1.402097e-001, -9.565570e-002, 3.762033e-002, 7.369695e-003, 8.874658e-002,
	-1.173491e-002, 9.136923e-002, 6.829233e-002, -2.011649e-001, -2.150237e-001, -1.288031e-001, -1.990142e-001, -1.517193e-001, 4.262367e-001, 1.692781e-001,
	6.561717e-002, -6.371707e-002, -2.030630e-001, 1.997408e-001, 3.552916e-002, -1.339003e-001, -8.523241e-004, 2.389468e-001, 2.385707e-001, 2.774821e-001,
	2.032991e-002, 3.997357e-001, 2.456829e-002, -9.041610e-002, -6.077835e-002, 1.600641e-001, -1.306274e-001, -5.185104e-002, -3.093056e-002, -8.431899e-002,
	-1.547069e-001, -6.400546e-002, -9.991266e-002, -1.416065e-001, -9.135216e-002, -2.194452e-001, -6.958438e-002, 2.616610e-001, -3.230435e-001, 6.950424e-002,
	7.684699e-002, -1.454089e-001, -8.976690e-002, 1.537278e-001, 9.301502e-002, 1.024525e-001, 1.390030e-001, -1.483036e-001, -1.899018e-001, -2.025959e-001,
	-1.329015e-001, 1.601468e-001, 1.048097e-001, -2.931100e-002, 9.385414e-002, 1.131314e-001, -1.128531e-001, 1.997818e-001, 8.099975e-002, 1.636761e-001,
	1.552378e-001, 2.025281e-001, 1.607073e-001, -6.961679e-002, 9.092201e-002, -8.738273e-002, -8.554963e-002, -2.650117e-001, -9.548803e-002, 1.749846e-001,
	8.367695e-003, 2.208374e-001, 7.097642e-002, 1.524927e-001, -4.579180e-002, -1.715998e-001, -6.377488e-003, -1.316727e-001, -1.517904e-001, 1.463567e-002,
	-9.231115e-002, -1.982375e-002, -1.569755e-001, -8.870078e-003, 4.299884e-002, -3.223731e-002, 6.212204e-002, -1.953592e-001, -8.451232e-002, -2.690542e-002,
	1.443744e-001, 1.407324e-001, -3.603808e-001, -2.072791e-001, -7.852952e-002, 9.336792e-002, 1.746481e-001, 1.206403e-003, 1.637723e-001, -1.094413e-001,
	-3.006373e-001, -2.454010e-001, 3.723817e-002, 8.926629e-002, 1.711833e-001, 2.239856e-001, -1.138275e-001, 2.468810e-002, 1.200729e-001, -5.124971e-003,
	-2.711048e-001, -7.768739e-002, -4.621788e-002, 2.165668e-001, -4.982695e-002, -2.338233e-001, -3.245852e-001, 1.248285e-001},

	{4.205503e-002, 3.714505e-001, 2.288970e-001, -1.243942e-002, 1.755343e-001, 2.334151e-001, 2.267790e-001, 2.747620e-001, 1.571562e-001, 1.612315e-001,
	1.563998e-001, 1.762900e-001, 9.382443e-002, -1.531456e-001, -2.216764e-001, -2.091995e-001, -8.475795e-002, 4.657966e-002, 9.814502e-003, -2.245066e-001,
	-2.131192e-001, -8.900867e-002, 1.351025e-001, 1.607098e-001, 4.233808e-002, 4.942832e-003, -4.277022e-004, -3.712890e-001,
	1.147350e-001, -2.139157e-001, 8.503227e-003, 7.464379e-002, 2.294018e-001, 1.888781e-001, -1.994419e-001, -1.296731e-001, 1.482457e-001, 1.029773e-001,
	-9.839830e-002, 1.663838e-003, 6.998449e-002, -1.471827e-001, -1.146141e-001, -2.801804e-001, 2.116293e-001, 1.877153e-001, -1.794372e-001, 7.199272e-002,
	-3.308176e-002, 2.316619e-001, 3.365473e-002, -8.126214e-002, 3.491236e-001, 1.328741e-001, -1.363983e-001, -3.698395e-002, 1.592126e-001, 1.382607e-001,
	2.183868e-001, -6.771483e-002, -3.662319e-002, -1.963569e-001, 8.301037e-002, 9.181898e-003, -9.514797e-002, 6.090508e-002, 9.916851e-002, -2.142331e-001,
	-7.660726e-002, 2.159796e-001, -2.725811e-001, 6.083906e-002, -1.550360e-001, -1.929542e-002, 1.875602e-001, 5.351390e-001, 2.985460e-002, 1.899709e-002,
	-1.652885e-001, -8.817831e-002, 5.129195e-002, -4.870345e-002, 2.450097e-001, 9.999489e-002, -2.268843e-001, -2.081628e-001, 8.835039e-002, -1.674822e-001,
	-1.805797e-001, 1.474357e-002, -3.461345e-002, -2.560208e-001, 3.467844e-002, 4.452704e-002, -3.869733e-003, -7.534432e-002, -3.150675e-001, 1.399536e-001,
	3.279617e-001, 1.167372e-001, -2.398373e-001, 1.017388e-001, 2.982790e-001, 1.659881e-001, -3.765578e-001, -1.075600e-001, -1.994746e-001, -8.718552e-002,
	8.297359e-002, 4.103314e-002, 8.131590e-002, -1.643517e-001, -3.074664e-001, 3.418504e-002, -1.376822e-001, -1.643063e-001, 2.891227e-001, -2.136135e-001,
	-4.602167e-002, 8.388533e-002, 1.644250e-001, 6.584572e-002, 6.905340e-002, -8.405291e-002, -5.794140e-002, -1.174434e-001, 5.006807e-002, 2.337592e-001,
	-7.474131e-002, 3.662988e-002, -1.570872e-001, 3.581156e-002, -3.359158e-001, 4.594036e-002, -2.265151e-001, -7.017557e-002, 6.712655e-002, 8.463445e-002,
	-1.016169e-001, 2.254025e-001, 5.546020e-002, 2.803387e-001, 2.428437e-002, 2.084760e-002, -2.935302e-001, 6.798901e-002, -1.846212e-002, -3.411052e-002,
	1.561885e-001, 3.943609e-003, -2.653954e-002, -3.622479e-002, -4.894928e-002, 7.100787e-002, 1.569487e-001, -1.580143e-001},

	{2.445214e-001, -2.544244e-002, -7.453677e-002, 3.976487e-001, 3.259605e-001, 3.127816e-001, 2.696120e-001, 3.228616e-001, 3.415460e-001, 3.144050e-001,
	1.550642e-001, 1.672957e-001, 2.765151e-001, 2.304807e-001, 1.325822e-001, -1.197065e-001, -2.608022e-001, -1.120539e-001, 8.831251e-002, 2.243454e-003,
	-4.146519e-002, -7.153068e-002, -2.245888e-001, -2.120012e-001, -2.192381e-001, -2.530109e-001, 1.886802e-001, 4.808556e-002,
	9.202189e-002, 3.200675e-002, -3.347151e-002, -2.117105e-001, 3.582202e-001, 2.776634e-001, -6.405575e-002, 1.854388e-001, 1.556323e-001, -4.160980e-002,
	7.385571e-002, 2.055582e-002, 7.989344e-002, -3.087587e-001, 1.263056e-001, -2.391152e-001, -4.301783e-002, 1.254707e-001, 3.562969e-002, 3.071462e-002,
	1.986785e-001, 1.418943e-001, -1.205108e-001, -2.041091e-002, 2.434773e-001, 2.598970e-001, -2.857501e-002, 2.496003e-002, -9.178608e-003, -1.681029e-001,
	-1.473992e-001, -3.340795e-002, 1.233517e-002, -2.077130e-001, -9.730873e-002, 3.121027e-001, -1.210797e-001, -1.420594e-001, -1.534075e-001, -1.317238e-001,
	-3.100250e-001, 1.582672e-001, -1.527052e-001, -2.647871e-001, -3.703075e-001, -1.608921e-001, -1.408980e-001, 1.583294e-001, -2.061682e-001, -2.430311e-001,
	-2.709924e-001, 5.268557e-002, -1.863450e-002, 1.055333e-001, 4.284384e-002, 2.336757e-001, -5.684486e-002, -9.979913e-002, 1.271961e-001, -2.245115e-001,
	-1.685806e-001, 1.553458e-001, 1.962938e-001, -2.440419e-001, -3.479009e-002, 6.886069e-002, -1.611477e-001, -5.570092e-002, 1.990073e-001, 1.942783e-001,
	1.416259e-001, 7.768983e-002, 1.328362e-001, 7.464491e-002, 3.450876e-002, 1.067724e-001, -2.102526e-002, 3.287594e-002, -4.565784e-002, -1.479181e-001,
	-7.562380e-002, -2.047282e-001, 2.298702e-001, -1.204292e-002, -1.679331e-001, -2.049987e-001, -2.149217e-001, -2.960111e-001, -8.556088e-002, 1.058845e-001,
	-6.941207e-002, -2.924014e-002, -1.990891e-001, -8.743821e-002, 3.423624e-001, 6.699416e-002, 1.155313e-001, -2.212227e-001, 3.817875e-001, 6.354295e-002,
	8.354352e-002, 6.140399e-002, -7.719550e-002, -3.263994e-001, -1.817112e-001, 5.960112e-002, 7.183168e-002, -1.121932e-001, 8.541787e-002, -1.555652e-001,
	-5.386036e-002, 2.946383e-002, 2.591424e-002, 2.456434e-001, 6.892113e-002, 2.100550e-001, -4.878244e-002, -1.068677e-001, 2.288187e-002, 1.477747e-001,
	2.407620e-002, 2.644386e-003, -1.592555e-001, 1.964881e-001, -4.189572e-001, -1.691309e-001, 1.145296e-001, 2.076881e-001},

	{-2.550877e-002, -1.133752e-001, -2.484675e-001, -1.411737e-001, 7.568522e-002, 2.289671e-001, 2.334649e-001, 2.337008e-001, 2.150041e-001, 1.242012e-001,
	-1.368512e-001, -1.046344e-001, -8.495079e-004, -3.042812e-002, -1.129195e-002, 2.210677e-002, 1.075047e-001, -8.374171e-002, -1.380034e-002, 2.313163e-002,
	-1.896003e-002, 6.285439e-002, -1.542343e-001, -3.730061e-001, -3.497882e-001, -2.632673e-001, -1.816783e-001, -1.512827e-001,
	5.656835e-002, -8.557989e-002, 6.851075e-002, -3.994139e-002, -3.451494e-002, 1.251025e-001, 1.837656e-001, 1.701027e-003, -9.280501e-002, -1.661168e-001,
	-6.880084e-002, -1.115568e-001, 1.935264e-001, 8.091601e-002, 1.552139e-001, -1.105145e-001, 1.295010e-001, 8.693556e-002, -2.661261e-003, 8.135960e-002,
	-3.093607e-002, 1.189238e-001, -1.305536e-001, 2.178680e-001, 5.285698e-002, 2.757916e-001, -5.729540e-002, 1.433125e-001, 1.720690e-001, -1.307860e-001,
	1.531281e-001, -1.506294e-001, 1.109771e-002, -1.199827e-001, 6.215584e-002, 9.329547e-002, -1.206588e-001, 1.364625e-001, -1.532609e-001, 2.449914e-001,
	-8.541621e-002, -1.601361e-002, 8.275194e-002, -6.845417e-003, 1.930791e-002, 5.630356e-002, -1.157209e-001, 4.450851e-002, 2.564691e-001, -8.470367e-002,
	-1.570994e-001, 6.847139e-002, -4.076695e-001, 2.428579e-002, -1.359497e-001, 1.162274e-001, 5.784664e-002, -3.832382e-002, -1.705803e-002, 5.040717e-003,
	-3.358318e-001, -2.160958e-001, 1.471456e-001, -5.768800e-002, -4.693166e-002, 5.685858e-002, -1.410702e-001, 1.394840e-001, -1.549679e-001, 4.456667e-002,
	2.045354e-001, -4.003966e-001, -1.699940e-002, 5.004353e-002, 1.881814e-001, 3.485370e-001, -8.984417e-002, 6.577434e-002, -4.724234e-002, -2.072988e-001,
	3.625097e-002, -3.650704e-002, -1.636904e-003, -2.260807e-001, -1.346650e-001, -2.663553e-002, -1.315588e-002, -9.136048e-002, -2.007130e-001, -6.733009e-002,
	-1.661429e-001, -6.500273e-002, -8.393493e-002, 4.788005e-002, 5.910574e-002, -1.812163e-001, 2.533803e-001, 1.066959e-001, -1.851202e-001, 3.871048e-001,
	1.469342e-001, 4.643921e-002, -2.143047e-001, 7.185243e-002, 3.089747e-002, 8.359794e-002, 1.347044e-002, -8.409620e-002, 1.681431e-002, -2.981405e-002,
	1.489210e-002, 1.414724e-001, -4.925387e-002, -2.562453e-001, 2.328702e-001, 5.111257e-002, -1.744188e-002, -1.764516e-001, 8.081398e-002, 1.454243e-001,
	9.056821e-002, -5.804153e-002, 2.411189e-002, 1.798838e-001, 2.524172e-002, 1.213351e-001, 2.190513e-002, -9.716830e-002},

	{-1.321124e-001, 7.636452e-002, 1.401864e-001, 2.249203e-001, 8.655944e-002, 9.284718e-002, 3.234476e-001, 2.340906e-001, 5.305094e-002, 9.851562e-003,
	2.127182e-001, 1.544413e-002, 6.498197e-002, 8.615400e-002, 1.023842e-001, 4.580893e-002, 1.635450e-001, 5.286241e-002, 1.336692e-001, -6.368415e-002,
	-1.164379e-001, -2.035067e-001, -2.655523e-001, -2.073261e-001, -2.048201e-001, -5.513191e-002, 1.062500e-001, -2.637359e-001,
	-1.704669e-002, -1.642933e-001, 1.958000e-001, -1.328409e-002, 1.178029e-001, -1.844123e-001, -7.516680e-002, 2.813573e-001, -4.403229e-002, 1.551499e-001,
	-1.099196e-001, -2.540958e-002, 7.396431e-002, -1.997283e-001, 9.606344e-003, -1.012761e-001, 1.530578e-001, 4.846608e-002, 8.687790e-002, -2.045599e-002,
	-9.291802e-002, -7.519889e-002, -7.800140e-002, 1.775046e-001, -1.245491e-002, -5.478133e-002, 1.064248e-002, 2.323096e-001, 1.894067e-001, 1.049069e-001,
	-1.424205e-002, 9.642179e-002, -9.966330e-002, -1.254827e-001, -1.363565e-002, 2.296884e-001, -1.015607e-001, 1.219033e-001, -9.690188e-002, -2.749044e-002,
	-1.983701e-001, 1.198073e-002, 9.293220e-002, -2.032313e-001, -1.820197e-001, 5.356611e-004, -2.021690e-001, -3.409957e-002, -1.783740e-001, 1.453675e-001,
	-5.528183e-002, -3.116992e-002, 1.801803e-001, -8.218462e-002, 2.236609e-001, 8.961244e-002, -8.107773e-002, 1.221081e-001, -9.008389e-002, -4.672924e-002,
	1.223851e-001, 6.488737e-002, 2.473662e-001, 3.291621e-002, -5.682338e-004, 9.982151e-002, -9.057305e-002, 7.525327e-002, 1.609339e-001, 2.274551e-001,
	1.528861e-001, -1.441725e-001, 2.904379e-001, -8.604926e-002, -1.068596e-001, 3.855874e-002, -1.675943e-001, -1.621990e-001, -4.320995e-002, -4.342208e-002,
	-1.946729e-002, -8.039792e-002, 1.281997e-001, -3.705747e-002, -9.047283e-002, 5.515525e-002, -1.202469e-001, -2.237454e-001, -6.190459e-002, -1.740108e-001,
	-9.159308e-002, 1.303796e-001, -6.777094e-002, -2.114841e-002, 2.885068e-001, -3.950895e-002, -1.400908e-001, -2.875629e-001, -1.273683e-002, -4.520245e-002,
	2.845230e-001, -8.040315e-002, -8.398826e-002, -4.472138e-002, -2.045502e-001, 2.456806e-001, -1.558933e-002, 1.278925e-001, -3.159162e-002, -9.013531e-002,
	-6.782752e-002, 1.062792e-001, -5.649314e-002, 2.527299e-001, 3.415381e-001, 6.150354e-003, -2.149250e-001, 5.575209e-002, 2.668731e-001, 4.526188e-002,
	1.446095e-001, -5.699444e-002, -8.744206e-002, 3.100037e-001, -8.783355e-002, -2.182264e-001, -2.922087e-001, 2.115685e-001},

	{8.827963e-002, 1.149903e-001, -2.360055e-001, -2.109055e-001, -2.040267e-001, 4.483339e-002, 1.612989e-001, 2.584461e-001, 9.602318e-002, 1.503519e-001,
	-3.132455e-002, -1.355532e-001, -2.656519e-001, -2.998464e-001, -2.694948e-001, -2.040065e-001, -5.707243e-002, -8.804665e-002, -1.528119e-002, 2.693009e-001,
	2.129388e-001, 1.924973e-001, 1.122389e-001, 2.048693e-001, -1.157631e-001, -5.684119e-001, -2.952082e-001, 5.974349e-002,
	-4.235985e-002, -1.562241e-001, -3.216600e-002, 8.152659e-002, 1.802135e-001, -1.277871e-001, -7.871450e-002, 1.262671e-001, -9.322044e-002, -2.310109e-001,
	1.154320e-001, -3.678695e-002, 3.175491e-001, -2.186036e-001, -7.391386e-002, -1.494419e-002, 1.192448e-001, 1.677582e-001, -1.211394e-001, 2.812990e-002,
	1.184587e-001, -7.574426e-002, 3.755678e-002, 3.048132e-002, 6.201468e-002, 4.799111e-002, -1.482696e-001, -1.433837e-001, -1.428122e-001, -2.087542e-001,
	2.220708e-001, 1.519754e-001, 2.366218e-001, -7.478893e-002, -1.802738e-002, 6.623803e-002, -1.811185e-001, 4.379722e-002, -3.819008e-002, 1.075584e-001,
	-2.428954e-002, -3.755189e-002, -4.571724e-002, 4.080730e-003, -2.085472e-001, 4.206132e-003, 1.598887e-001, 9.163190e-002, 5.270952e-002, 3.359792e-002,
	-2.169493e-001, -2.232135e-002, 8.504444e-002, -2.205439e-001, 7.191469e-002, 1.599134e-001, 1.209149e-001, 7.237837e-002, 1.050811e-001, -1.042393e-001,
	1.004310e-001, -9.458943e-002, 7.428610e-002, -1.009136e-001, -8.273160e-002, 1.556236e-001, -1.356728e-001, -1.106762e-001, 3.932497e-002, -1.278849e-002,
	9.803253e-002, -1.101924e-001, 6.401563e-002, 1.064997e-001, 9.812230e-002, 8.874002e-002, -4.617459e-002, 4.554465e-002, -1.012575e-001, -1.225425e-001,
	-1.080953e-001, -8.792491e-002, 6.470858e-002, -1.302914e-001, -2.271386e-001, -1.077411e-001, 3.145777e-002, -4.757439e-002, 2.766743e-002, -2.331170e-001,
	-1.260484e-001, -4.118934e-003, 1.192350e-001, 2.120391e-001, -2.153008e-002, 2.625914e-002, -3.156804e-001, -1.248179e-001, -3.289174e-002, -1.758735e-002,
	-1.214476e-001, 1.034818e-001, -1.220008e-001, 2.751433e-002, -2.756563e-001, -2.496861e-002, 1.279853e-001, 9.815311e-002, -9.491287e-003, -1.089465e-001,
	-1.154579e-001, 1.303514e-001, -9.755585e-002, 1.266116e-001, 7.507794e-002, 8.927659e-002, 8.401965e-002, -1.817829e-001, -2.586505e-002, -8.668310e-002,
	3.289969e-002, -1.234121e-001, -2.500632e-001, -9.923585e-002, 4.580621e-002, 3.743729e-002, -1.407921e-002, 1.894985e-001},

	{-2.085950e-001, -1.297544e-001, -1.456827e-001, 9.821222e-002, 1.558567e-001, 9.325442e-002, 4.104126e-002, 1.192250e-001, 9.109320e-002, 2.071174e-001,
	6.031057e-002, 1.790973e-001, 2.281930e-001, 2.935728e-001, 1.543136e-002, 1.378119e-001, 1.296203e-002, 6.664644e-002, -2.172868e-001, -2.006855e-001,
	-2.380167e-001, -1.175026e-001, -3.481499e-002, 3.358011e-002, 4.851999e-002, 5.186315e-002, -4.947470e-002, -9.990885e-002,
	2.120926e-001, 7.391180e-002, 4.887350e-002, 4.540375e-002, 2.470745e-001, 1.041157e-001, -4.787564e-002, -1.111659e-001, -5.011532e-002, -2.678235e-002,
	-6.177011e-003, -3.578057e-002, 5.432322e-002, -1.543226e-001, -3.533757e-001, -6.293182e-002, 1.465675e-001, 1.009393e-001, -2.746017e-002, 1.336985e-001,
	1.742299e-001, 1.731228e-002, -1.648165e-001, -6.900422e-002, 4.809077e-002, -1.102281e-001, -3.589065e-002, -1.851226e-001, 1.190129e-001, 1.349345e-001,
	-4.062244e-002, 1.271845e-001, 1.558219e-001, -1.152009e-002, -1.242119e-002, 1.439842e-001, 5.758771e-002, 1.382331e-001, -9.911104e-002, 4.629930e-002,
	-1.241851e-001, 2.419170e-001, -3.790236e-001, -9.541767e-002, -9.196382e-002, -1.866792e-001, 1.132318e-001, 2.010914e-001, -4.810698e-002, -3.758437e-002,
	-1.921766e-002, 3.342796e-002, -1.999552e-001, -5.123663e-002, -1.064461e-001, 1.559736e-001, -2.665445e-002, -1.735265e-001, 1.650273e-002, -2.125767e-001,
	1.026427e-001, 1.192484e-001, 5.678174e-002, -1.813919e-001, -8.806340e-002, 1.640472e-001, -1.505954e-001, 2.051232e-001, -1.619233e-001, -2.099640e-002,
	5.028135e-002, 2.218462e-003, 3.201759e-002, 7.923143e-002, -3.557188e-002, 1.682184e-001, -3.964622e-002, -1.419278e-001, 3.888520e-002, -1.471279e-001,
	8.103499e-002, 1.232492e-001, 9.503372e-002, 8.447276e-002, -1.811387e-001, -1.640773e-001, -1.395859e-001, -1.148064e-001, 1.585141e-001, -8.406543e-002,
	6.371226e-002, 1.037059e-002, -1.406407e-001, -4.079507e-002, 5.572008e-002, -2.500023e-001, -2.470505e-002, -3.036795e-001, 1.839322e-001, 1.527916e-001,
	7.391433e-002, 8.260979e-002, -3.471028e-001, -2.668106e-001, -7.671650e-002, 1.356156e-001, -1.387530e-001, 3.104403e-001, 7.090297e-002, 2.196679e-002,
	-1.505509e-001, -3.454986e-002, 1.393400e-001, 8.397733e-002, 1.780848e-001, 2.396435e-001, 6.334384e-002, 6.282281e-002, 9.311172e-002, 1.896262e-001,
	3.473710e-002, 1.082049e-001, -4.643086e-003, 1.045866e-001, -8.816957e-002, -6.386103e-002, -9.284855e-002, 1.801436e-001},

	{1.313694e-001, 8.471081e-002, -7.208830e-002, 5.943847e-002, 1.385484e-001, 3.731076e-003, 3.522394e-003, 1.371048e-001, 6.310079e-002, 1.410098e-001,
	-2.570899e-003, 3.069036e-002, -1.855408e-001, -1.210973e-001, 1.752942e-001, -4.605766e-002, -1.336815e-001, -4.014447e-001, -3.131642e-001, -2.935489e-001,
	-5.475523e-003, 2.309077e-002, -1.167162e-001, -1.012230e-001, -4.389635e-002, 1.323068e-002, 2.179118e-001, 2.330220e-002,
	8.679531e-003, 6.990402e-002, 2.518545e-001, 1.329507e-001, 7.122703e-002, -3.008858e-002, 2.699754e-001, 1.431646e-001, 2.199476e-001, 1.660021e-001,
	4.140528e-002, -6.140380e-003, -7.990659e-002, -2.855681e-001, 1.456679e-002, -2.313615e-001, -2.073904e-001, -7.050576e-002, 1.265344e-001, 5.408051e-002,
	-1.277294e-001, 2.709013e-002, -2.130459e-001, 7.988612e-002, 3.519234e-002, -8.093794e-002, -5.709966e-002, -9.555352e-002, 2.933823e-001, 1.352818e-001,
	-1.725627e-001, 1.773789e-001, -1.826199e-001, 1.321354e-001, 1.738821e-001, 6.712571e-002, 1.646501e-001, 5.079623e-002, -7.542183e-002, 1.682017e-001,
	-2.183692e-001, -9.077294e-002, -9.513547e-003, 5.834434e-002, 1.267325e-002, -1.502014e-001, -6.569502e-002, 2.225617e-001, -3.308309e-002, -8.554453e-003,
	6.197686e-002, -7.522708e-004, -1.611909e-001, -4.435072e-002, -1.732151e-001, 2.375164e-001, 1.236112e-001, 3.706378e-002, 6.290112e-003, -2.792409e-002,
	-1.735907e-001, -2.605284e-003, 2.782446e-001, 4.844205e-002, -8.381358e-002, 1.030189e-001, -1.174367e-001, 1.357022e-001, 1.122512e-001, 1.425897e-001,
	2.448802e-001, -1.499899e-001, -4.503042e-002, 1.095574e-001, 1.457308e-001, 7.070157e-002, -1.096249e-002, -1.555693e-001, -9.444649e-002, 1.497690e-002,
	-1.911430e-001, 4.921851e-002, -6.546529e-002, 2.844534e-001, -2.401116e-002, -1.426054e-001, 3.180710e-001, -8.274556e-002, 1.470461e-002, -2.037779e-001,
	6.359144e-002, 1.338758e-001, -2.166247e-001, 7.055155e-002, 1.357787e-001, 8.177963e-002, 8.245035e-002, -1.055602e-001, -2.675189e-001, 4.397469e-002,
	1.842239e-001, -5.271259e-002, -1.643478e-001, -8.651941e-002, -1.159745e-001, 7.235309e-002, 1.389270e-001, -8.350365e-003, -1.128522e-001, 5.877778e-002,
	-7.696775e-002, 1.770869e-001, 7.155746e-002, -1.534701e-001, 1.041096e-001, 4.483583e-002, 1.004459e-001, -1.618201e-001, 1.936802e-001, 2.024150e-002,
	1.277791e-001, 1.114131e-002, -4.573917e-002, 1.894403e-003, -4.678147e-002, 8.815248e-002, 8.895446e-002, 8.597538e-002},

	{8.826474e-002, 8.593315e-003, 1.035987e-001, -5.987758e-002, -3.700632e-001, -2.668891e-001, -2.353770e-001, -1.787669e-001, 1.531703e-002, 1.651897e-001,
	-2.563488e-002, -1.322453e-001, -1.763794e-001, -9.628088e-002, 1.140776e-001, -2.205882e-002, 6.421918e-002, -1.739139e-001, 3.345939e-002, 1.381786e-001,
	8.298667e-002, 5.771172e-002, -3.948177e-001, -3.882891e-001, -2.679835e-001, -1.876370e-001, -2.366104e-001, -1.073968e-001,
	2.642325e-002, -5.061924e-002, 1.792390e-001, -1.964863e-002, 2.187699e-001, -3.372417e-002, 4.986689e-002, 1.513328e-001, 2.202710e-002, 1.765635e-001,
	-1.210388e-001, -1.922051e-001, -4.695871e-002, -1.716688e-001, 2.774077e-002, -1.200387e-001, 1.496144e-001, 8.001694e-002, -3.865331e-002, 5.955254e-002,
	6.391928e-002, 9.241357e-002, -1.846974e-001, 1.258994e-001, -4.070704e-002, 2.463986e-002, -1.644274e-001, -1.219859e-001, 1.287262e-001, 1.421460e-001,
	4.793463e-002, 2.048836e-002, -5.204783e-002, 9.388846e-002, 1.343554e-002, 7.755494e-002, -6.199845e-002, 1.432930e-001, -7.721177e-003, 7.364728e-002,
	-2.044479e-002, 1.943471e-001, -5.287099e-002, 9.946270e-002, -2.171671e-001, 9.904730e-003, -1.792824e-001, -7.139821e-003, 6.723695e-002, -1.279341e-002,
	-1.774916e-002, -3.888975e-002, -3.037660e-001, -3.297312e-001, -1.564832e-002, -1.355044e-001, -1.813637e-003, 5.720851e-002, 2.018959e-001, -1.646941e-001,
	3.556708e-002, -1.923119e-001, 2.539825e-001, -6.227003e-002, -2.015564e-001, 2.034243e-002, -4.211638e-002, 2.827670e-001, 6.191665e-002, 9.747297e-002,
	-8.392790e-004, -1.849444e-001, -4.917174e-002, 1.538294e-001, 5.187121e-003, 1.368336e-001, -2.519070e-002, -3.107915e-001, -1.121863e-001, -1.259277e-001,
	4.517590e-002, -5.508533e-002, -1.887228e-002, 6.162304e-002, -5.069119e-001, -1.425295e-001, 7.777348e-002, -1.501778e-001, 1.255961e-001, -9.487899e-002,
	9.675278e-002, 3.520487e-002, -3.931036e-001, 5.625083e-002, 9.628462e-002, 3.763825e-002, 3.476730e-003, -2.863300e-001, -7.303931e-002, 2.478993e-001,
	-1.068853e-001, 2.186349e-002, -1.863910e-002, 6.925549e-002, -6.468736e-002, 2.431029e-001, 1.596701e-001, -1.457450e-001, 1.404840e-001, -2.035714e-001,
	1.047757e-001, -1.573545e-001, 3.257453e-002, -4.986055e-002, 8.547533e-002, 4.797814e-001, -2.833273e-001, 1.735092e-001, 1.218892e-001, 1.142319e-001,
	1.917803e-001, -1.631798e-001, -7.789359e-002, 1.478849e-001, -1.722978e-001, -3.119859e-002, -2.230790e-001, 1.818693e-001},

	{-7.386723e-002, 8.633485e-002, 1.858771e-001, -2.148845e-002, -2.944865e-001, -2.262173e-001, -1.682114e-001, 1.457079e-001, 2.115611e-001, 3.210593e-001,
	1.308234e-001, 2.013601e-001, 4.261376e-002, 1.429080e-001, 1.232780e-001, -1.263357e-001, -1.922733e-001, -1.600618e-001, -1.980859e-001, -2.739038e-001,
	-5.847857e-002, 1.049253e-002, -2.149749e-001, -2.420440e-001, -2.104504e-001, 9.994461e-002, 5.144808e-002, -2.760987e-003,
	-2.669144e-002, -2.246308e-001, 1.355526e-001, -9.280799e-002, 3.292824e-001, 9.786581e-002, -6.745598e-002, 4.429374e-002, -8.626234e-002, 8.816002e-002,
	7.741008e-002, -5.679043e-002, 1.732836e-001, -1.438431e-001, -2.271010e-002, -2.889705e-002, 3.929697e-001, 8.361924e-002, -1.760243e-001, 9.765218e-003,
	6.062269e-002, 2.945696e-002, -1.921438e-001, 1.772227e-001, -1.065221e-001, 1.388793e-002, 2.327077e-002, 2.380993e-002, 1.475208e-001, 9.567209e-002,
	7.207807e-002, 1.311435e-001, 1.550484e-001, 4.019722e-002, -8.476139e-002, 8.746196e-002, 3.717066e-002, 7.033525e-002, -1.808621e-001, 4.447117e-002,
	-7.308753e-002, 1.160924e-002, -3.913771e-002, -9.450366e-002, -6.386757e-002, -5.184885e-002, -1.689610e-001, 6.705057e-002, 1.792948e-001, 4.673759e-002,
	-8.431140e-002, -6.528676e-003, -6.626906e-002, -7.250566e-002, 6.896120e-002, 8.805232e-002, -1.091919e-002, -7.549577e-003, 2.527879e-001, -2.759475e-001,
	-1.127722e-001, -1.181907e-001, 4.250754e-002, -4.302865e-002, -6.013139e-002, 6.494620e-002, -1.702394e-001, 1.727353e-001, -9.461541e-002, 1.594724e-003,
	6.076017e-002, -2.008173e-001, 4.563722e-002, -4.700411e-002, -1.622929e-001, 1.262507e-001, -3.607257e-001, -6.675343e-002, 1.263695e-001, -1.010402e-001,
	1.630905e-001, -1.702653e-001, 1.387673e-001, -8.140286e-002, -1.632920e-001, -8.019479e-002, -4.135468e-002, -1.587621e-001, -1.311997e-001, -1.859427e-001,
	2.302229e-001, 1.887383e-001, -1.129540e-001, -2.347460e-002, 1.505774e-001, -1.718846e-003, -2.292982e-001, -2.749804e-001, -1.542754e-001, 2.144853e-001,
	-6.888552e-002, 1.365015e-001, -1.333260e-001, -1.476866e-002, -1.306401e-001, 8.697081e-002, 7.543752e-002, -7.416372e-002, 2.714579e-002, 1.341647e-001,
	7.453679e-002, 1.000579e-001, 1.559170e-001, -4.247990e-002, 1.825962e-001, 2.109716e-001, -3.477191e-001, 1.461480e-001, 2.001652e-001, 2.556321e-001,
	1.779806e-001, -2.503520e-002, -1.428732e-001, 8.828568e-002, -1.971368e-001, -5.094137e-002, -1.997952e-001, 2.650330e-002},

	{-3.523642e-002, 8.312753e-002, 2.311114e-001, 6.341556e-002, -1.818061e-001, -6.937996e-002, 1.379506e-001, 2.846371e-001, 1.824193e-001, 9.557884e-002,
	8.447742e-002, 2.526500e-001, 2.373335e-001, 1.555472e-001, 2.322458e-001, 3.142711e-001, 2.642671e-001, 1.639988e-001, 8.766700e-002, -8.804659e-002,
	-4.499571e-002, -3.286971e-002, 5.358591e-002, 2.056066e-001, 1.519783e-001, -9.682669e-002, -1.902221e-001, -1.426360e-001,
	-5.676562e-002, -1.533266e-001, -1.196247e-003, -8.301951e-002, -2.040431e-002, -1.480391e-002, -8.347981e-002, 1.253859e-001, -6.901582e-002, 2.251918e-001,
	1.678227e-001, -1.321875e-001, -9.353800e-002, 1.086008e-002, 1.154929e-002, 6.183416e-002, 9.961729e-002, 5.081227e-002, 2.043905e-001, 4.400902e-002,
	-2.785752e-001, -1.362340e-001, -3.789501e-002, 1.131015e-001, -8.267616e-002, -2.570596e-002, -4.855419e-002, -5.513247e-003, 2.573523e-001, -1.483796e-001,
	-8.325484e-002, -5.909185e-002, 1.085925e-002, -5.262390e-002, -5.990470e-002, 1.136745e-001, 1.511502e-001, 1.393100e-001, -4.672861e-003, 1.095606e-001,
	-8.377638e-002, 2.097599e-002, 1.860949e-001, -1.391952e-001, 4.625559e-002, 3.126813e-002, -1.023674e-002, -5.538791e-002, 3.532100e-002, 1.439439e-001,
	8.842397e-002, -7.394675e-002, 5.358165e-003, -1.101780e-001, -1.081289e-002, 3.576655e-002, -2.361454e-002, -4.218195e-002, 4.653643e-002, -6.690487e-004,
	2.380848e-002, -2.608147e-001, 1.266162e-001, -7.742791e-002, -1.657384e-001, 6.722981e-002, -1.544469e-001, 6.104001e-002, 3.620580e-002, 4.066149e-002,
	6.365805e-002, -6.240874e-002, 2.530418e-001, -1.447778e-001, 7.209008e-002, 2.349901e-001, -1.658473e-001, -1.186662e-001, -2.105741e-003, 1.622933e-001,
	4.263654e-002, -1.329826e-001, 3.552033e-002, 5.685434e-002, -2.460144e-001, -4.291175e-002, 5.862552e-002, -3.282180e-001, 2.495826e-004, 1.606357e-001,
	1.821431e-001, 2.242492e-001, -1.834233e-001, -2.487581e-001, 4.663943e-002, -1.949789e-001, -9.645420e-002, -1.396932e-001, -3.713600e-002, 1.130491e-001,
	-9.425314e-003, 6.114152e-002, 1.158108e-001, 1.987373e-002, 2.252960e-001, 2.268186e-002, 2.877683e-001, -1.091266e-001, -4.090833e-002, -4.312386e-002,
	3.683052e-002, -2.278463e-001, 1.518015e-001, -1.397857e-002, 4.907019e-001, -1.881941e-001, -1.826849e-001, -1.108156e-002, 1.475685e-001, 2.711506e-001,
	7.787921e-002, -9.638903e-002, -2.911565e-002, 2.160561e-001, -1.739767e-001, 7.575812e-002, -2.788033e-001, 2.202268e-001},

	{6.123351e-002, 2.754924e-002, -2.247368e-001, -2.604571e-001, -2.264276e-001, -3.495591e-002, 4.535803e-003, 4.744299e-003, 3.585659e-002, -5.379296e-003,
	2.328547e-001, 1.144819e-001, 2.596365e-001, 2.394985e-001, 2.135669e-001, 8.274541e-002, -1.542183e-001, -1.998924e-001, -4.356100e-001, -5.116795e-001,
	-3.633851e-001, -3.807469e-001, -2.185874e-001, -6.226809e-002, 9.844407e-002, 1.242588e-001, 1.338372e-001, -2.621585e-001,
	6.929268e-002, 1.125903e-001, 3.007261e-001, -4.721320e-002, 2.585841e-001, -3.402057e-001, -3.691395e-002, -8.531304e-002, -1.087224e-001, -1.028689e-001,
	1.888566e-002, -1.029539e-001, -1.674996e-002, -3.832058e-002, -8.186669e-002, 2.567022e-002, 1.657609e-001, 5.141410e-002, -1.392447e-002, 2.614478e-001,
	1.774172e-002, 9.133015e-002, -3.304292e-002, 9.313750e-002, 4.766246e-002, -5.210337e-002, -3.157961e-001, 1.014880e-001, 1.346062e-001, 1.769054e-001,
	7.241162e-002, -5.114175e-002, -9.898984e-002, 7.939641e-002, 1.688179e-001, 8.668977e-002, 8.512495e-002, 3.108911e-001, -3.353985e-002, -2.103282e-002,
	-1.239038e-001, 1.008436e-001, -2.211657e-001, -5.253615e-002, -1.689200e-001, -5.557021e-002, 1.334557e-001, 1.907755e-001, -7.927828e-004, 8.653828e-002,
	-1.770786e-003, 7.119066e-002, 1.317635e-002, -7.071212e-002, 6.602576e-002, 2.983413e-002, -8.420534e-002, -4.246980e-002, 1.777249e-001, -2.695109e-002,
	-2.402627e-002, -2.544747e-001, 6.682238e-002, -1.042794e-001, 1.303069e-001, 9.638286e-002, -3.324950e-001, 1.082148e-001, 2.649606e-002, 5.990082e-002,
	-1.221799e-002, 4.036250e-002, -1.511344e-001, 1.171847e-001, 6.972504e-002, 1.786842e-002, -8.783543e-002, 6.761366e-002, 5.638181e-002, -2.747933e-002,
	2.516443e-002, 5.545932e-003, 1.374996e-001, -1.225567e-001, 1.453041e-001, -2.428688e-002, 8.284140e-002, -1.901021e-001, 1.818448e-002, -4.117597e-002,
	7.710095e-002, 2.974040e-002, -4.043890e-002, -5.261325e-002, -5.062033e-003, 1.715897e-001, -2.219384e-001, -5.516016e-002, 8.502853e-002, -7.771456e-002,
	1.105501e-002, -1.754712e-002, 8.469950e-002, -9.363337e-002, -3.063904e-001, 1.194681e-001, -1.233563e-001, 2.086436e-001, 6.046285e-002, -1.740094e-002,
	1.055678e-002, -5.130759e-002, 1.775072e-001, -8.016859e-002, 3.449782e-001, 1.516201e-001, -2.150837e-002, 8.174583e-002, 8.369056e-002, 9.478102e-002,
	1.237210e-001, 1.754424e-002, -1.374103e-001, 2.394415e-001, -2.039864e-002, 1.451344e-001, -7.224096e-002, 1.564249e-001},

	{-3.219408e-002, 1.093105e-001, 1.179407e-001, -2.709159e-001, -1.223531e-001, -8.115051e-003, 1.617015e-001, 1.504681e-001, 1.442283e-001, 9.253592e-003,
	2.561570e-001, 1.149894e-001, 1.505245e-001, 1.651348e-001, 4.902180e-002, 9.060542e-002, 1.334475e-001, 1.091341e-001, -6.134194e-003, -1.848253e-001,
	-2.433213e-001, -1.626878e-001, -7.380775e-002, 1.459916e-002, -2.750722e-001, -2.293096e-001, 2.024364e-001, 1.902636e-002,
	3.926717e-002, -2.692936e-002, 9.488067e-002, 4.474657e-002, 1.589331e-001, 1.698972e-001, -2.966938e-002, -1.553096e-001, 6.766972e-002, 1.004238e-001,
	-8.278749e-002, 3.508640e-002, -1.338675e-001, 3.916495e-003, -1.156066e-001, -1.656895e-001, 8.453491e-002, -9.186058e-002, -1.761603e-001, 2.178935e-001,
	1.955133e-001, 2.324500e-002, -5.711604e-002, -2.231978e-002, -7.111093e-002, -2.454155e-002, 1.048360e-001, -2.425325e-002, 5.641834e-002, 1.480732e-001,
	2.820892e-002, 4.976154e-002, -1.748446e-001, -1.553034e-001, 1.553708e-001, 4.563485e-002, 3.167347e-001, 1.244987e-001, 5.297020e-002, -2.694711e-001,
	-1.216904e-001, -6.048949e-002, -1.971235e-001, 7.211221e-004, -1.337999e-001, -1.395932e-001, -2.182885e-002, 2.300788e-001, -1.823541e-002, 6.712067e-002,
	1.371245e-001, -1.167920e-001, -2.066781e-001, 6.989323e-002, 1.163348e-001, -5.266684e-002, 5.876193e-002, 8.246704e-002, 8.185758e-002, -1.820615e-002,
	2.077050e-001, -1.896596e-001, 6.428284e-002, 2.934383e-002, 2.073150e-001, -1.145192e-001, -4.124914e-002, 1.079276e-001, -4.933764e-002, -2.987362e-002,
	-1.510154e-001, -1.905883e-002, -4.941526e-002, -2.651147e-002, 2.931581e-001, 7.243086e-002, -1.349239e-001, -1.870978e-001, -2.338299e-002, -3.363379e-002,
	1.043589e-001, 7.562500e-002, -8.205422e-002, 1.634603e-001, -4.568012e-002, 4.707933e-002, 4.284614e-002, -3.623871e-002, 3.971461e-002, -5.081223e-002,
	-5.686961e-003, 4.731164e-002, -1.454569e-001, -5.339180e-003, 6.897004e-002, -3.584182e-003, 2.106842e-001, -1.337293e-001, 1.001685e-001, 1.626526e-001,
	-8.299572e-002, -1.444954e-001, 1.085959e-001, 5.898732e-002, 2.250801e-001, 6.097887e-002, 1.869702e-001, -5.393539e-002, 8.163861e-002, 6.588366e-002,
	1.046238e-001, -1.293152e-001, 2.391289e-001, 1.709064e-002, 4.577629e-002, 2.099532e-001, -5.286339e-002, 5.930213e-002, 1.496941e-001, -4.766144e-002,
	3.743545e-002, 3.874400e-003, 7.884652e-002, 9.163884e-002, 7.804321e-002, 5.411862e-002, -1.913595e-001, -2.122686e-001},

	{-4.067554e-002, -3.964073e-002, 5.947652e-002, 1.393734e-001, 8.030535e-002, 3.944569e-003, -6.677127e-002, -3.186405e-002, -4.099643e-002, -4.102735e-002,
	-7.382996e-003, 1.075493e-001, 8.534603e-002, -4.643004e-002, 9.166813e-002, 1.865682e-001, 2.430390e-001, 1.177425e-001, -1.512450e-001, -4.367785e-001,
	-1.970055e-001, -2.291671e-003, 1.293832e-001, 2.776382e-001, 4.755895e-001, 2.991431e-002, 9.445139e-003, 1.849986e-001,
	1.209495e-002, -2.755271e-001, 2.250580e-001, -9.643314e-002, 2.545176e-001, 1.498533e-001, 2.426461e-001, -4.961365e-002, -1.186502e-002, 2.021052e-001,
	1.662973e-002, -3.434402e-002, -8.429646e-002, -2.643985e-001, -1.150260e-001, -1.405978e-001, 1.197450e-001, -1.368975e-002, 1.224404e-001, 2.402747e-001,
	-2.199600e-002, 6.742219e-002, 2.999062e-002, -6.821276e-002, 8.490244e-002, -1.216951e-001, -1.668317e-001, 1.179264e-001, 2.778061e-001, -1.278705e-003,
	-1.141648e-001, -1.176240e-001, -8.680113e-002, 6.920225e-002, 2.042223e-001, 1.342398e-001, 4.120458e-002, -5.294972e-003, -7.656578e-002, 1.469086e-001,
	-2.148821e-001, 4.469943e-002, -1.506361e-001, -6.196429e-002, -1.592210e-001, -2.406322e-001, 5.198464e-003, 2.270051e-001, -2.898995e-001, -2.731424e-002,
	1.818304e-002, -2.328596e-002, -1.968099e-002, 1.865599e-001, -2.187245e-002, 1.199823e-001, 9.971615e-002, -8.426559e-002, -1.759603e-001, -1.831098e-001,
	-5.555626e-002, -1.970314e-002, -2.511281e-002, 1.384715e-001, -6.084255e-002, 7.635861e-002, -5.137818e-002, 1.349226e-001, 1.219879e-002, 3.150995e-001,
	3.372256e-001, 6.740766e-002, 1.037769e-001, -6.865914e-002, 2.174685e-001, 4.287589e-002, -2.574563e-003, -1.579731e-002, 1.104049e-001, 1.322294e-001,
	-1.270661e-001, -1.140513e-002, 7.426205e-002, 1.188683e-001, 7.629421e-003, 5.116726e-002, 1.516161e-001, -9.228930e-002, 1.581755e-001, -9.777081e-002,
	-8.604203e-002, 1.426607e-001, 4.336616e-003, 6.636392e-002, 3.325765e-001, 3.676137e-002, 4.829170e-002, -7.217400e-002, -6.115315e-002, 8.950928e-002,
	2.788157e-002, 1.381708e-001, -4.027647e-001, -1.456625e-002, -8.739214e-002, 6.656690e-002, 3.491741e-002, 5.740666e-002, -5.464172e-002, 3.799317e-002,
	-1.846805e-001, -1.025578e-001, 1.301487e-001, -1.170844e-001, 1.862957e-001, 5.758776e-002, 1.145208e-001, -3.156451e-002, 4.107032e-001, 1.562113e-001,
	2.804572e-002, -2.038539e-001, -9.275815e-002, 1.752918e-001, -4.997906e-002, 5.258838e-002, -1.692651e-001, 2.543209e-001},

	{-9.131764e-002, 2.577324e-002, -1.839597e-001, 2.204794e-002, -1.121250e-002, 2.202532e-001, 1.105859e-001, 4.745413e-002, 2.032878e-002, 6.270311e-002,
	2.198578e-001, 7.469723e-002, -1.933104e-002, 2.215337e-002, 1.025498e-001, 1.961793e-001, 2.465846e-001, 2.303555e-001, 1.785683e-001, -1.625059e-001,
	-3.747468e-001, -3.397664e-001, -9.241195e-002, -8.837299e-002, 2.501161e-001, 1.362536e-001, 4.762963e-002, 8.462407e-002,
	4.400250e-002, -6.164249e-002, 1.072336e-001, -2.170152e-001, 1.943933e-001, 6.140766e-002, 4.108911e-002, -1.421732e-001, -6.846325e-002, 8.140870e-002,
	7.906665e-002, -1.493717e-001, 2.163742e-001, -2.268871e-001, 1.175451e-001, -3.180469e-001, 9.115209e-002, 3.842443e-001, -9.822210e-003, 3.583639e-002,
	-3.695535e-002, 1.837934e-001, 1.172498e-001, -5.484543e-002, -2.203274e-002, 1.141852e-001, -4.312816e-002, 8.369661e-002, 1.305985e-001, -1.496977e-001,
	-8.020335e-002, 3.762135e-001, 2.254604e-001, 7.870911e-002, -6.975087e-002, 3.641215e-001, -1.349095e-001, -5.620731e-002, -1.162743e-001, 7.353275e-002,
	-6.625062e-002, -7.315059e-002, -1.147817e-001, -9.839586e-002, -3.260585e-001, 7.392431e-002, -1.033078e-001, 3.528275e-001, -1.196046e-001, -1.167293e-001,
	-2.989083e-001, -1.308932e-001, 2.451138e-001, 1.649809e-001, 9.592895e-002, 2.169577e-002, -1.300457e-001, 1.098121e-001, -1.067719e-001, -2.157591e-001,
	8.645509e-002, 7.638763e-002, 1.061496e-002, -1.021890e-001, -2.898430e-002, 2.543461e-001, -1.878652e-001, 1.830554e-001, 1.064910e-001, 7.871080e-002,
	5.062828e-001, 8.376561e-002, 2.322681e-001, -2.206372e-002, 4.198781e-001, 1.368556e-001, -2.842962e-001, -1.257647e-001, -2.419107e-002, -4.053281e-002,
	8.365171e-004, -2.265541e-002, 4.217461e-002, 1.143996e-001, -1.184909e-001, -2.774663e-001, -5.660470e-002, -2.439902e-001, -5.035486e-002, -2.293271e-001,
	-1.709662e-001, -1.786432e-001, -1.064606e-001, 8.750106e-002, 3.267139e-001, 7.098471e-002, -8.878594e-002, 1.233507e-001, -2.117448e-001, 7.567875e-002,
	-1.126070e-002, 9.595452e-002, -2.549308e-001, -1.508078e-002, -2.288460e-001, 9.400696e-002, -4.927931e-002, -2.590976e-002, 1.851922e-001, -1.003879e-001,
	-1.452181e-001, 9.586327e-002, -1.270735e-001, 1.633345e-001, 2.012505e-001, -8.089884e-003, -1.072040e-001, -5.463580e-002, 2.014969e-001, 1.993622e-001,
	2.162673e-001, -2.722947e-001, -2.279482e-001, 2.466206e-001, -1.950260e-001, -1.293849e-001, -8.427601e-004, 1.488137e-001},

	{-1.690396e-001, 4.244708e-002, -3.179040e-002, -2.550108e-001, -1.255776e-001, -2.660482e-001, -4.190205e-001, -5.133858e-001, -3.366549e-001, -4.806061e-001,
	-4.844302e-001, -8.189280e-001, -7.198239e-001, -5.702210e-001, -3.638246e-001, -1.271005e-001, -1.871194e-001, -1.651780e-001, -2.136973e-001, -3.631704e-001,
	-3.896728e-001, -3.627910e-001, -4.564453e-001, -2.471006e-001, -5.443510e-002, -3.227430e-001, -1.836642e-001, -2.222599e-001,
	-5.086241e-002, -1.132438e-002, 4.625372e-002, 7.308327e-002, 2.817651e-001, 1.837994e-001, 1.499888e-001, -3.274142e-002, -6.629986e-002, 6.202650e-002,
	7.243261e-003, 8.016529e-003, -2.747303e-002, 5.478574e-003, -1.237419e-001, 9.962937e-003, 1.495876e-001, 5.890660e-002, 2.907882e-002, 2.451658e-001,
	8.399712e-002, 1.485110e-001, -7.939687e-002, -1.214615e-001, 7.431469e-002, -5.390816e-002, -1.474610e-001, -1.092355e-001, -7.717637e-002, 8.062693e-002,
	1.647677e-001, -7.556185e-002, -8.538201e-002, 8.721020e-002, 9.203390e-002, -3.182507e-002, 8.135953e-002, 1.540602e-001, 1.251224e-001, 5.443709e-002,
	-1.512487e-001, 1.159403e-001, 5.785051e-002, 7.092246e-002, -6.203255e-002, -6.816638e-002, 1.303064e-001, 1.335905e-001, -1.142865e-001, 1.843944e-002,
	1.580777e-002, 1.897325e-001, 7.185574e-002, -2.905079e-002, 7.217370e-003, 2.935654e-002, 3.169902e-001, -2.368264e-002, 1.917531e-002, 7.430232e-002,
	2.862868e-002, -4.659767e-002, 9.214755e-002, -9.123602e-002, -1.673012e-001, -2.795869e-002, 2.294130e-002, 2.552125e-002, -1.378159e-001, 9.663377e-002,
	8.345192e-002, 8.117794e-002, -1.622477e-001, -2.481001e-002, 4.224464e-001, -1.834231e-002, 3.613868e-003, -2.778661e-002, 1.228509e-002, 5.621580e-002,
	2.376352e-002, 2.977347e-001, 7.428610e-002, 1.040698e-001, 1.274213e-001, 6.449598e-002, 1.317949e-001, 7.199709e-002, 2.054097e-001, 4.333213e-002,
	4.661726e-002, 1.912023e-001, 3.410110e-002, 9.012046e-002, 1.426246e-001, -1.901904e-002, 9.166586e-002, -1.454215e-001, 1.102390e-001, 2.676944e-002,
	1.251741e-001, 2.529830e-001, -9.433127e-002, -4.224718e-002, -4.282989e-002, -3.402149e-003, 1.260578e-001, -1.305752e-002, 8.539193e-002, -2.066337e-001,
	-2.635543e-002, -7.999733e-002, -1.068303e-001, -2.774553e-002, -3.357972e-003, -8.487767e-002, 1.526856e-001, 7.560386e-002, 7.206954e-002, -6.082885e-003,
	-4.083508e-002, 4.812039e-002, 8.669121e-002, 1.332830e-002, -5.590589e-002, 9.416398e-002, 2.471208e-002, -6.903977e-002},

	{2.445409e-002, -3.432059e-002, -2.951931e-002, 2.266320e-001, 1.366940e-001, 1.032707e-001, 1.150924e-001, 1.891824e-001, 1.257609e-001, -1.155519e-002,
	-3.287163e-001, -3.379945e-001, -2.438833e-001, 3.306765e-002, 1.341771e-001, 3.686125e-002, -4.104679e-002, 1.428391e-001, 1.316947e-001, 1.850147e-002,
	4.801299e-002, -9.700274e-002, -1.884388e-001, -1.647425e-001, -1.771384e-001, 2.465587e-002, 1.746040e-002, -1.329576e-001,
	-1.180307e-001, 1.824104e-002, 4.669894e-002, -6.467380e-002, 1.949003e-001, 1.733197e-001, -1.454023e-002, -4.716060e-002, -1.338006e-001, 1.432048e-001,
	-5.704416e-002, -5.388209e-002, 2.154730e-002, -1.075166e-001, 4.740389e-002, -1.261600e-001, 5.224556e-002, 9.696546e-002, 5.935099e-002, 1.987328e-001,
	-1.203766e-001, 1.746073e-001, 1.490749e-003, 8.429477e-002, 1.674207e-001, -8.648097e-002, -9.724254e-002, 8.841655e-002, 1.391556e-001, 1.590917e-001,
	7.559502e-002, -6.371801e-002, -1.961700e-002, 8.579303e-002, -1.764273e-002, 7.351144e-002, 1.143833e-001, 1.086751e-001, -8.087305e-003, -6.590271e-002,
	-5.725676e-002, -9.427774e-003, 5.872755e-002, -1.056229e-001, -3.967371e-002, -2.045047e-001, 1.739444e-001, 1.074106e-001, -6.380943e-002, -3.559783e-002,
	4.922147e-002, -1.033991e-001, -9.608685e-002, 2.152663e-001, -2.618281e-002, -1.381579e-001, 2.037807e-002, -2.442525e-001, 3.522029e-002, 1.380916e-001,
	3.193142e-002, 4.550992e-002, -3.463721e-002, -1.379032e-001, 2.326740e-001, 2.194781e-002, -1.039621e-001, 1.682499e-001, -1.077301e-001, -9.127994e-003,
	2.549889e-001, -2.165008e-001, -1.239485e-001, -2.029667e-002, 3.459158e-002, 4.684798e-002, -8.906301e-002, -1.874714e-001, -5.524305e-002, 7.125287e-002,
	3.464384e-002, 9.564918e-002, 8.158745e-003, 1.296705e-002, 2.656904e-002, 2.325759e-002, 1.055210e-002, -3.403567e-003, -1.090921e-001, -8.328713e-002,
	9.097835e-002, 3.296020e-002, -2.246145e-001, 4.205738e-003, -3.183020e-002, -7.633377e-002, 2.331850e-001, -4.006075e-002, -3.526152e-001, 3.255122e-002,
	-1.663048e-001, -7.474075e-003, -1.403844e-001, 8.557905e-002, -1.415373e-001, 3.766536e-003, 7.355534e-002, 1.797439e-002, -1.368213e-002, -5.575087e-003,
	-7.259943e-002, -3.955317e-002, 2.798522e-001, -1.252192e-001, 2.462510e-001, 2.983087e-002, -2.323427e-001, 3.984972e-002, 2.001784e-001, -5.224265e-002,
	-1.049618e-001, -3.173133e-002, 2.033821e-002, 1.084059e-002, -9.026555e-003, 6.176391e-002, 1.524323e-003, 3.136028e-002},

	{-3.709658e-001, -1.932445e-001, -3.419032e-001, -9.636783e-002, 1.088752e-001, 1.052258e-001, 2.046541e-001, 1.826304e-001, 1.694427e-001, 3.291391e-001,
	1.102942e-001, -9.697414e-003, -1.077649e-002, -1.357880e-002, -4.461417e-002, -4.944924e-002, 7.850542e-002, 7.023782e-002, 4.440512e-002, 8.795549e-002,
	2.516573e-001, 1.865920e-001, 1.169717e-001, 2.260559e-001, 1.472047e-001, -1.253088e-001, 5.060536e-002, -1.309284e-002,
	-1.259511e-003, -3.719772e-001, -7.777786e-002, -1.284110e-001, 1.202641e-001, -2.168963e-002, -1.708674e-001, 5.216750e-002, -7.278544e-002, 1.475933e-001,
	5.675003e-002, 3.088302e-002, 9.436317e-002, -2.184077e-001, 2.535650e-001, -1.918952e-001, -1.302030e-002, 1.313293e-001, -4.236438e-002, -1.498778e-001,
	2.337520e-002, -9.845271e-002, -5.459578e-002, 1.859595e-001, -6.272269e-002, 9.293418e-002, -1.953170e-001, 4.867610e-002, 1.633943e-001, -2.316883e-001,
	-2.651808e-002, 2.727134e-001, 1.513685e-001, -2.061260e-001, -1.434187e-001, 4.231761e-001, -1.335930e-001, 1.328584e-001, -2.585560e-001, 7.301904e-002,
	-2.875315e-001, -2.235665e-001, 1.804516e-001, -2.384420e-001, -1.958819e-001, -1.139738e-001, 8.375484e-002, -1.303489e-001, 3.563809e-002, -9.628911e-002,
	-1.247076e-001, -3.239278e-001, -8.668706e-002, 1.757390e-001, 2.583332e-001, -1.465901e-002, -7.830752e-002, -6.922266e-002, 2.067395e-001, -8.131741e-002,
	1.101439e-001, 4.588296e-002, 1.587653e-001, -4.034363e-001, -6.307652e-002, 2.523170e-001, -2.395514e-001, 2.991190e-001, -1.591831e-002, -3.014585e-002,
	2.901842e-002, -1.285986e-001, 5.053862e-002, -2.287305e-002, -4.082885e-002, 3.302952e-002, -1.302066e-001, -5.388397e-002, -6.832395e-003, -3.098505e-001,
	9.047590e-002, -1.309782e-001, 1.282346e-001, 2.552809e-002, -1.655168e-001, -2.440368e-001, -9.016912e-002, -3.974270e-001, -2.191245e-001, -8.825332e-002,
	5.945725e-003, 9.670281e-002, -4.775423e-002, -8.976603e-003, 2.119992e-001, 1.301404e-001, 7.045136e-002, 4.082669e-003, -1.645425e-001, 1.347624e-001,
	1.312105e-002, -9.880099e-002, -3.753216e-002, 1.469275e-001, -5.314218e-002, 1.192365e-001, 4.152840e-002, 2.682541e-002, -4.093217e-004, -1.973006e-001,
	1.373240e-002, 1.260554e-001, -3.527179e-002, -5.614841e-002, 2.542847e-002, -1.510616e-001, -3.052713e-001, -1.455305e-001, 2.276378e-001, -8.258831e-002,
	-5.961102e-002, -2.245185e-001, -9.047995e-002, 1.843813e-001, -8.799675e-002, 6.124012e-002, -1.446856e-001, 2.238025e-002},

	{-5.975679e-002, -1.361690e-001, -2.634140e-001, -1.914022e-001, -1.441238e-001, 9.490270e-003, 5.192921e-002, 3.030101e-001, 2.049122e-001, 1.823991e-001,
	9.817694e-002, -1.429649e-001, -4.318179e-001, -3.744593e-001, -1.237613e-001, 3.979431e-002, -2.408781e-001, -2.197503e-001, -2.652864e-001, -3.290706e-001,
	-3.033135e-001, -2.932389e-001, 2.888181e-002, 1.876983e-001, 1.083502e-001, 1.706702e-001, 7.575194e-002, -3.798852e-001,
	8.931588e-002, -6.358993e-002, 4.441654e-003, 1.951509e-001, -5.643013e-002, -2.197453e-001, -7.067184e-003, 5.313360e-002, 5.499499e-003, 2.583465e-001,
	4.851427e-002, -4.038145e-002, 5.892962e-002, -4.518398e-002, -1.200869e-001, -2.201797e-001, 1.165784e-001, -1.951049e-001, 3.082172e-001, 8.033950e-002,
	-1.923317e-001, 1.285348e-001, -9.992347e-003, 1.816640e-001, 5.042309e-002, 8.709917e-002, -1.070703e-001, 2.335715e-001, -4.099841e-002, 2.369801e-002,
	-2.418868e-001, 2.259047e-001, -1.827573e-001, -2.621512e-001, -1.237633e-001, 1.156357e-001, -1.869453e-001, 2.644216e-001, 4.339102e-002, 1.191029e-002,
	-1.399588e-001, -6.529683e-002, 4.517372e-003, -1.120798e-001, -7.018826e-002, -2.679581e-001, -1.010515e-001, 7.328707e-002, 3.459554e-003, -1.585102e-002,
	-7.502207e-002, -2.607777e-002, 2.657891e-001, 1.945856e-001, -6.653372e-002, -2.432849e-002, -1.974469e-001, -1.824198e-001, 1.372116e-001, -2.621627e-002,
	-5.014738e-002, 7.691757e-002, -1.478342e-001, 6.725296e-002, -1.116409e-001, 1.663062e-001, 6.324849e-002, -4.506347e-002, 3.896451e-002, -3.834120e-003,
	-2.732254e-002, -8.325137e-002, 3.397511e-001, -2.592120e-001, -1.532569e-001, -9.132310e-002, 1.888081e-001, -1.481047e-001, -5.966276e-002, 1.506700e-001,
	3.476297e-002, -1.077821e-001, 1.333205e-001, -8.982249e-002, 2.995076e-001, -5.464328e-002, -1.812672e-001, -8.301189e-002, -2.301470e-002, -1.210621e-001,
	-3.071522e-002, 1.920337e-001, -1.291820e-001, -6.182826e-002, -9.811792e-002, -1.414962e-001, -3.314175e-002, 9.832383e-002, -1.359174e-001, 1.069314e-001,
	9.642937e-002, -5.117731e-002, -9.331753e-003, -4.121137e-002, -3.074730e-001, 2.025638e-001, -1.115745e-001, -8.791846e-002, 1.020422e-003, -1.347075e-001,
	-2.155304e-001, 3.572280e-002, -3.505153e-002, 1.076960e-001, 6.633352e-002, -4.274798e-002, -1.436123e-001, -2.177040e-001, 1.025049e-002, 5.009995e-002,
	-3.246893e-002, -1.216394e-001, -1.755526e-002, 1.722786e-001, -2.982766e-002, -1.963228e-001, -8.611006e-002, 7.967299e-002},

	{1.409534e-001, 7.489716e-002, -9.218876e-002, -1.334578e-002, 2.111793e-001, 4.793779e-001, 4.401239e-001, 3.367659e-001, 3.564314e-001, 1.717987e-001,
	1.143911e-001, 1.001420e-001, -1.570970e-001, -2.297135e-001, -1.227344e-001, 1.222903e-001, 1.197089e-001, -3.641283e-002, 2.055041e-002, 6.545685e-002,
	-1.139999e-002, 1.176100e-001, 9.415179e-002, -1.231322e-001, -2.166278e-001, -5.468644e-002, -2.128927e-001, 2.526841e-002,
	-2.916243e-001, -2.518713e-002, 2.164562e-001, 9.521902e-002, 1.159334e-001, 2.776058e-002, -1.155083e-001, -1.621676e-001, -6.956989e-002, 1.766763e-001,
	1.540715e-003, -1.028089e-001, 6.461684e-002, -2.072551e-001, -1.565091e-001, -1.003093e-001, 1.156770e-002, 2.085746e-001, 1.032507e-001, -1.551173e-002,
	-2.406608e-001, 3.978791e-002, 1.236835e-002, 3.387003e-002, -1.505101e-001, 1.653271e-001, -4.985403e-001, 5.920727e-002, 1.356667e-001, 7.094708e-002,
	2.783874e-001, -1.199955e-001, -1.496013e-001, 1.749794e-001, 1.983325e-001, 1.433743e-001, 7.139185e-002, -1.196833e-003, -1.027296e-001, 2.189081e-001,
	-1.072401e-001, 4.896441e-002, -5.239640e-002, -8.667490e-002, -1.646939e-001, -5.694896e-002, 7.529034e-002, 1.926252e-001, 5.746279e-002, -1.306815e-001,
	-1.197252e-001, 2.574111e-002, -4.712660e-002, -1.578468e-001, -2.869407e-001, -3.420723e-002, 2.980759e-001, -1.523967e-001, -2.091780e-001, 1.244511e-001,
	-1.467318e-001, -2.653742e-001, -1.255317e-001, -1.391064e-001, -9.052387e-002, 1.429756e-001, 1.052434e-001, 3.831292e-002, 4.546255e-002, 4.992083e-002,
	1.800538e-001, 1.669630e-001, -3.254228e-001, -1.734299e-001, 2.770359e-001, 3.186396e-002, -2.704090e-003, -1.709810e-001, 3.689725e-002, -6.327775e-002,
	-4.500616e-002, 2.105925e-001, -8.711899e-003, 2.130197e-001, 3.325325e-002, -2.379756e-002, -1.350386e-001, -9.011602e-002, 1.375548e-001, -1.644147e-001,
	-6.417461e-002, 3.824680e-002, 2.870831e-002, 2.069287e-001, 1.985789e-001, -1.522756e-003, 1.242803e-001, -2.477398e-001, 9.305754e-002, 8.680844e-002,
	-4.724021e-002, 8.744322e-002, -1.532659e-001, 2.046622e-001, -3.122078e-001, 6.634299e-002, -7.483276e-002, -6.603368e-003, 1.374342e-003, -4.207455e-001,
	6.740609e-002, 2.097310e-001, -1.294352e-001, -3.855806e-002, 1.349868e-001, 2.826631e-002, -6.575996e-002, 1.317160e-001, 9.683657e-002, 2.405176e-002,
	2.135252e-001, -8.164667e-002, -1.314471e-001, 2.809506e-001, -1.911862e-001, -3.461733e-002, -4.185151e-002, 7.583240e-002},

	{1.368993e-001, 1.467218e-001, -2.111479e-001, -6.789844e-002, -3.740245e-003, 2.263299e-001, 1.797631e-001, 4.444702e-002, 1.870636e-001, 1.684292e-001,
	3.411816e-001, 3.860628e-001, 1.974888e-001, 2.319432e-002, -1.177906e-001, 1.930706e-003, -4.264431e-004, 2.010121e-002, -4.832750e-004, -2.407498e-001,
	-2.936727e-001, -3.110031e-001, -4.369483e-001, -1.719651e-001, -2.942150e-001, -1.286126e-001, -7.146700e-002, 2.932356e-002,
	3.218761e-002, -1.740813e-001, -4.444976e-002, 7.653453e-002, 2.865450e-001, 8.030760e-002, 3.134298e-001, 5.494463e-002, 1.418235e-001, -1.597194e-001,
	-3.731810e-003, 3.177012e-002, 4.526965e-002, -8.850363e-002, 6.941536e-002, -8.792248e-002, 3.839685e-002, -1.587719e-001, 7.049262e-002, 2.878521e-001,
	3.853749e-001, 2.856268e-003, -2.444954e-001, -1.728069e-002, 2.254714e-001, 8.302189e-002, 1.420864e-002, 1.115482e-001, -9.423085e-005, 2.105760e-001,
	-1.373562e-001, 5.597946e-002, -1.052834e-001, -1.614419e-001, 1.873816e-001, 1.046150e-001, 2.575381e-002, 7.700017e-003, -4.170940e-002, -1.908170e-001,
	-8.182707e-002, -1.919593e-001, 1.808895e-002, -1.492256e-001, -1.361211e-001, -9.692542e-002, -2.109837e-002, 4.362747e-001, -1.993890e-001, -2.438167e-001,
	-1.021987e-001, -2.970496e-001, 1.190539e-001, 3.891818e-001, 3.651761e-001, -3.663186e-002, -1.664216e-001, -7.848659e-002, -1.575597e-001, -1.518812e-001,
	6.611246e-003, 2.062105e-001, -2.668666e-002, -4.042504e-002, -7.274208e-002, 1.455901e-001, -8.786310e-002, -5.242462e-002, -3.145803e-002, 9.032881e-002,
	3.342425e-001, 6.231973e-002, 8.215544e-002, 5.753976e-002, 2.099940e-001, -4.803535e-002, -7.127993e-002, -1.935987e-001, -7.410929e-002, 5.129720e-002,
	-2.707674e-001, 1.741188e-001, 1.528687e-003, 1.797499e-001, 8.753673e-002, -4.553436e-003, -1.582301e-001, 1.133084e-001, 1.344264e-001, -3.150687e-001,
	-3.510186e-001, -1.254265e-001, 8.647464e-002, -1.420640e-001, 4.190499e-002, 2.872307e-001, 2.341378e-001, 5.957057e-002, 2.736524e-002, -6.765039e-002,
	1.343542e-002, -7.510893e-003, -7.429415e-002, -1.827205e-001, -1.108764e-001, 1.113828e-002, 1.856758e-001, -2.787082e-002, 1.405402e-002, 2.494251e-002,
	-3.642824e-002, -1.740449e-001, -1.301499e-002, -4.273280e-002, -1.273254e-001, 9.008653e-002, -1.053901e-001, 1.115015e-001, 1.520081e-001, -2.414616e-001,
	-1.432211e-001, 1.100252e-001, -1.373014e-001, -1.247862e-001, 2.139211e-002, 3.100616e-002, 8.099608e-002, -1.419197e-001},

	{2.615637e-001, -1.783615e-001, -1.285032e-001, 7.759123e-002, 1.657493e-001, 6.534638e-002, -9.829073e-002, -2.128180e-001, -1.541094e-001, -5.664369e-002,
	-1.960579e-002, -5.975039e-002, 1.649947e-001, 1.325166e-001, 1.270618e-001, -4.501922e-002, -3.380419e-001, -3.908233e-001, -2.046749e-001, -6.545010e-003,
	-9.734436e-002, -3.225858e-001, -1.063055e-001, 1.848588e-002, 1.109132e-001, 7.577834e-002, 5.664731e-002, 1.540989e-001,
	2.327596e-001, -1.769603e-001, 8.952543e-002, 1.442210e-001, 9.307529e-003, -6.770749e-002, -3.757517e-002, 2.308066e-001, 4.207567e-003, 8.336577e-002,
	5.881567e-002, -4.868874e-002, 2.386915e-003, -1.755785e-001, -6.904238e-002, -2.044736e-001, -1.211021e-003, 8.567473e-002, 1.579415e-001, 2.709934e-001,
	1.645687e-001, 1.965735e-001, -1.256756e-001, -1.309691e-002, 2.096131e-001, 3.807852e-002, -5.923450e-002, -5.646652e-002, 2.230054e-001, 1.516005e-001,
	-5.215957e-002, -8.618303e-002, -2.076896e-001, 1.582108e-001, -3.181748e-002, 2.279077e-002, -2.336733e-002, 1.424624e-001, -1.971549e-001, 9.002950e-002,
	-1.557089e-001, 3.792477e-001, -2.900621e-001, -5.951598e-002, -1.068291e-001, -1.094529e-001, -1.697588e-001, 2.600772e-002, -5.981296e-002, -8.348606e-002,
	2.268417e-003, 2.088366e-001, -5.358491e-002, -4.080461e-001, -1.535693e-001, 1.183247e-002, -2.833117e-002, -8.593992e-002, 2.358660e-001, -1.655148e-001,
	-1.370445e-001, 1.056178e-002, 1.402124e-001, 1.493818e-002, -2.137854e-001, 2.418899e-002, -1.073637e-001, -4.900359e-002, 2.517880e-001, 3.661563e-001,
	3.047508e-002, 4.688699e-002, -2.019198e-001, 1.592586e-002, 1.534135e-002, 1.567925e-001, 7.534119e-002, -7.983790e-002, 1.665301e-002, 1.355055e-002,
	2.548346e-002, -1.088630e-001, 1.931536e-001, -2.041695e-001, -1.817101e-001, -1.511116e-001, 1.206028e-001, -1.462479e-001, 1.987287e-001, -1.840258e-001,
	1.510802e-001, 1.174896e-001, -1.482228e-001, 3.691639e-003, 1.809048e-001, -1.088754e-002, -7.636306e-002, -2.558975e-001, 1.194288e-001, 1.062389e-002,
	-2.932091e-003, 7.546753e-002, -1.164814e-001, -2.415949e-001, -2.308025e-001, 9.188727e-002, 9.231701e-002, 1.573627e-001, 1.640852e-001, 2.395962e-001,
	-1.355273e-001, -1.251697e-001, 1.417113e-001, -1.590749e-001, 1.037814e-001, 5.400755e-002, -9.996531e-002, -4.657778e-002, 7.011796e-002, -3.492223e-002,
	4.420667e-002, -1.617902e-001, -8.948921e-002, 1.979861e-001, -8.579022e-002, -1.446001e-001, -1.994307e-001, 1.415518e-001},

	{6.352541e-002, -2.994111e-001, -3.844836e-001, -3.369349e-002, -5.670182e-002, -1.597581e-001, -1.069237e-001, 1.618110e-001, 1.178089e-001, 6.000485e-002,
	3.987439e-003, -1.612981e-001, -3.893845e-001, -4.982514e-001, -3.855880e-001, -3.223544e-001, -1.923403e-001, -1.780051e-001, -2.279180e-001, -1.715563e-001,
	-2.544408e-001, 1.498321e-001, 8.472907e-002, 4.837786e-002, -8.132087e-002, 3.880870e-002, 1.928616e-001, -3.665127e-001,
	-5.765283e-003, -7.446868e-002, -1.309678e-001, 1.001227e-001, 1.289155e-001, -2.397463e-002, -1.353204e-001, -2.272074e-001, -1.007725e-001, -1.181614e-001,
	-8.699917e-002, -9.443586e-002, 1.357557e-001, -1.782091e-001, 1.815632e-002, 6.249575e-002, 1.262556e-001, 4.221484e-002, -1.010136e-001, 8.816940e-002,
	3.764281e-002, 5.066028e-002, -9.064562e-002, 3.360492e-004, -3.213340e-003, 1.956299e-002, -1.345610e-001, -1.155131e-001, 2.821582e-001, -5.172951e-002,
	-9.723622e-002, 9.662826e-002, 1.869977e-001, -2.116099e-002, 3.613786e-003, 1.782390e-001, -1.506151e-001, 9.774965e-002, 3.783656e-002, 9.270496e-002,
	-5.086566e-002, 2.353208e-001, -2.002351e-001, -2.810617e-002, 7.365736e-002, 7.548505e-002, 2.708248e-001, 3.410059e-001, 8.402417e-002, -9.356790e-002,
	3.557192e-003, 7.760323e-003, -2.455784e-001, -6.271496e-002, 1.362465e-001, -4.628133e-002, -1.394985e-001, 4.581248e-002, 1.309802e-001, -6.826652e-003,
	1.671559e-001, 5.486068e-002, 5.711642e-002, -6.544717e-002, 1.656596e-001, -7.482831e-002, -1.402711e-001, 9.305528e-002, -6.311010e-002, -1.817817e-001,
	1.579950e-001, -1.038438e-001, -3.441934e-001, 3.076688e-001, 8.349490e-002, 7.144595e-002, -3.563491e-002, 2.841551e-002, 2.731677e-002, 3.321904e-002,
	-4.654958e-002, -1.456196e-003, 3.043005e-002, -3.067882e-002, -1.000015e-001, -1.329732e-001, -4.458819e-002, -4.430810e-002, 2.552841e-002, -8.349970e-002,
	1.002821e-001, -1.764351e-003, -3.105956e-002, 5.428067e-002, -2.931975e-002, 2.131375e-002, -3.491973e-002, 1.661748e-001, -1.464992e-001, 1.054304e-001,
	-5.694084e-002, 4.221399e-002, -1.386247e-001, 6.373768e-002, -1.761521e-001, -1.090891e-001, -2.185434e-001, 1.762225e-002, 2.925494e-003, 1.265569e-001,
	-7.993378e-002, -1.271768e-001, 1.005101e-001, 5.535335e-003, 1.535715e-001, 1.812597e-001, 1.395344e-001, -2.154067e-001, 6.293634e-002, -2.642460e-003,
	5.700252e-003, -2.853188e-002, 1.693321e-001, -2.971918e-002, 5.084021e-002, 2.487286e-001, 1.336301e-001, -1.338968e-001},

	{2.057421e-001, 1.837572e-001, 2.330353e-001, 5.093655e-001, 7.107824e-001, 4.829660e-001, 6.991866e-001, 5.639136e-001, 4.017294e-001, 4.041466e-001,
	6.364864e-002, -6.033293e-002, -1.559403e-001, -3.820030e-001, -4.453591e-001, -5.036895e-001, -5.480225e-001, -3.397310e-001, -3.376993e-001, -2.343423e-001,
	-4.359218e-002, 6.089820e-002, 2.340478e-001, 3.006336e-001, 3.563675e-002, 5.561591e-002, 9.047852e-002, -1.500168e-001,
	5.607141e-003, 3.861264e-002, 3.196257e-002, 1.176999e-002, 3.214377e-003, -5.383259e-002, 8.778439e-002, -1.189729e-001, 2.434875e-002, 4.202342e-002,
	-1.136101e-001, -2.587086e-002, 1.192241e-001, 5.528745e-002, -1.394152e-001, -7.957476e-002, 1.584656e-001, 1.926571e-001, -1.870972e-001, 7.722571e-002,
	-5.886816e-002, 1.395368e-001, -8.297856e-002, 9.979939e-002, 7.896999e-002, -8.556717e-002, -6.507979e-002, -8.819815e-002, 1.253477e-001, 6.627820e-002,
	-3.008761e-001, -2.162885e-001, -8.113661e-002, 1.371410e-001, 1.431613e-002, 6.132258e-002, 1.208437e-002, 1.904252e-002, 5.754161e-002, 3.392660e-002,
	1.176964e-001, 8.760102e-002, -6.145174e-002, 1.656287e-001, 5.815661e-002, 7.038771e-002, -2.761714e-002, 7.305375e-002, -1.794884e-002, -1.438642e-001,
	-1.434348e-001, 1.786303e-002, -4.208753e-002, -9.950382e-002, 9.839296e-002, -9.815102e-003, -2.183528e-001, 3.051305e-002, -6.132006e-002, -6.681135e-002,
	6.133762e-002, -8.002940e-002, 5.840264e-002, 6.942459e-002, 6.923595e-002, -6.523392e-002, -8.328937e-002, -2.919805e-002, -5.292889e-002, 1.485264e-003,
	1.563236e-001, -1.468324e-001, -2.003671e-001, 9.729575e-002, -1.563799e-001, -5.115127e-002, -7.817190e-002, -1.107959e-001, -1.396759e-001, 5.393609e-002,
	-2.147102e-002, 3.378640e-001, 3.521375e-002, -2.910381e-001, -4.714305e-002, 1.142016e-001, 1.175019e-001, 1.770877e-002, 2.364978e-001, -1.379467e-002,
	-6.160081e-004, 2.588115e-001, -1.523281e-002, 6.090725e-002, 1.494553e-001, -1.610190e-002, -2.625717e-001, -1.354503e-001, -2.953795e-001, 5.288148e-002,
	-8.349949e-002, 8.153584e-002, -6.791279e-002, -6.113982e-002, -2.790515e-001, 1.930554e-002, -9.907526e-002, -2.112380e-001, 4.973130e-002, 2.015590e-001,
	2.763890e-002, 4.342721e-002, -7.360616e-002, 1.040180e-002, 3.058752e-002, -1.204107e-003, 8.140599e-003, -5.523455e-002, -1.183833e-002, 1.519290e-001,
	8.690432e-002, -2.382866e-002, -8.027309e-002, -4.022672e-002, -1.217087e-001, -8.506514e-002, -9.968296e-002, 4.983225e-003},

	{3.920221e-002, 2.844380e-001, 7.542978e-002, 7.592768e-002, -7.532681e-002, -7.953979e-003, 1.110367e-001, 2.812180e-001, 1.755083e-002, -1.736693e-002,
	-1.386010e-002, 9.256981e-002, 1.348609e-001, 1.428251e-001, 2.363662e-001, 2.382590e-001, 5.207397e-003, -7.998159e-002, 5.153134e-002, 1.191150e-001,
	1.771895e-001, 1.635387e-001, -4.242015e-002, -2.907632e-002, -8.331203e-002, 1.320182e-001, -2.006232e-001, -1.418596e-001,
	2.305032e-002, -2.376532e-001, 1.196581e-001, -2.692315e-001, 5.557966e-002, 2.300869e-001, -1.503098e-002, -1.008400e-001, -1.564929e-002, 4.177675e-002,
	-9.130421e-002, 8.607169e-002, 1.349626e-001, -2.654020e-001, -1.910667e-002, -1.879137e-001, 3.770659e-002, 1.917361e-002, -2.241949e-002, 2.335383e-001,
	1.105032e-001, -2.437643e-002, -1.333476e-001, 1.556206e-001, -9.715854e-002, -3.711716e-002, -4.538998e-002, 2.985309e-002, 4.597143e-001, 3.664490e-002,
	-1.393092e-001, 3.268602e-001, -1.251390e-001, 5.763271e-002, 7.099328e-002, 4.412141e-001, 1.520333e-001, 1.452624e-001, -2.089271e-001, 4.506449e-002,
	-1.607314e-001, 2.248325e-002, -9.829906e-003, -1.221622e-001, -1.909091e-001, -7.802898e-002, -7.142127e-003, 1.064369e-001, -2.053599e-002, -4.084548e-002,
	-5.118902e-002, -3.773943e-001, -2.587501e-001, 2.215861e-001, -1.767485e-002, 1.424434e-001, -2.879783e-001, -2.031986e-001, -1.620062e-001, -1.402701e-001,
	1.956476e-001, -1.589774e-001, 2.591766e-001, -1.983558e-001, 2.619293e-001, 2.545113e-001, -4.941341e-001, 4.342401e-001, 1.156167e-001, 1.782491e-001,
	2.515142e-002, -2.141300e-001, 1.403795e-001, 1.192371e-001, 1.891308e-001, 3.961500e-001, -1.380268e-001, 9.717548e-002, -4.099999e-002, -1.244909e-001,
	2.146783e-001, 3.792290e-002, 1.967356e-001, -1.230592e-001, -1.871589e-001, -2.463820e-001, -7.291470e-002, -4.251547e-001, 7.526865e-002, -5.122510e-002,
	-2.849272e-001, 4.179258e-002, -7.940824e-002, 1.657653e-001, 7.221222e-002, -2.769226e-002, 2.423626e-003, 5.138962e-002, -1.785747e-003, 2.136923e-001,
	1.505546e-001, -1.540330e-001, -1.985037e-001, -1.627781e-001, 5.924428e-002, 1.769501e-001, -1.391277e-002, -3.094487e-001, 7.308152e-002, 6.132783e-002,
	-2.012944e-002, -1.003112e-001, 1.262127e-001, -7.130272e-002, 2.217517e-001, 1.270117e-001, -7.253486e-002, 5.222268e-002, 2.113937e-001, -4.628190e-002,
	-1.386710e-001, -4.892406e-002, -8.236393e-002, 3.950217e-001, -1.751330e-001, -1.206456e-001, -1.536610e-001, 3.439693e-003},

	{1.569136e-001, -8.276746e-002, 6.242133e-002, -6.808659e-002, -1.187756e-002, 6.460410e-002, 9.838448e-002, 2.170167e-001, 2.831553e-001, 4.078490e-001,
	2.595523e-001, 2.279759e-001, -1.174584e-001, -1.697984e-001, -2.646518e-001, -1.777970e-001, -4.413741e-002, -8.101052e-002, 3.163886e-002, -1.515825e-001,
	-2.756631e-002, 2.004139e-002, -1.067426e-001, -1.221290e-001, -1.247606e-001, -6.867768e-002, -2.822744e-002, -3.186124e-001,
	1.129191e-001, -1.656524e-001, 2.985393e-001, -4.080063e-002, 4.324672e-001, -7.074829e-002, 1.491069e-002, 4.710449e-002, 1.024527e-001, 4.280828e-002,
	-4.980591e-002, -9.231362e-002, 1.810856e-001, -1.689964e-001, 4.625058e-002, -2.124330e-001, 2.115571e-001, 3.651718e-001, -1.319183e-001, 5.774588e-002,
	3.267063e-002, 1.742557e-001, -1.821065e-002, 2.135035e-001, -8.104984e-002, 1.613158e-001, -2.449154e-002, -5.938703e-002, 1.657080e-001, 2.857268e-003,
	6.567597e-002, -4.955411e-004, -3.982575e-002, -2.785974e-002, -1.611608e-002, 1.192313e-001, -6.202095e-002, 2.397446e-001, -2.205493e-001, 8.436150e-002,
	-9.619174e-002, 5.863915e-002, -1.130264e-001, -9.401721e-002, -9.220492e-002, -8.601763e-002, -9.053429e-002, 3.241045e-001, 1.189718e-001, -8.388962e-002,
	-3.138441e-002, -1.021157e-001, -4.519205e-002, -4.394476e-002, -6.039639e-002, -8.779580e-003, 4.042341e-004, -5.630278e-002, 8.663182e-002, -2.189810e-001,
	-1.948202e-002, -1.770173e-001, 4.679823e-002, -8.654562e-002, 2.441967e-002, 1.368159e-001, -2.245466e-001, 1.644757e-001, -1.456834e-002, 1.627797e-001,
	2.375417e-001, -1.576649e-002, 8.933105e-003, 2.727316e-001, -3.746707e-003, 2.185357e-001, -2.951026e-001, -1.165269e-001, -5.890130e-002, -1.850143e-001,
	2.126226e-002, 9.734991e-002, 1.112412e-001, -2.624663e-002, -3.148523e-001, -3.875723e-002, -4.477239e-002, -2.452246e-001, 3.892960e-002, -2.045256e-001,
	-8.028609e-002, 8.911442e-003, 3.404995e-002, 1.893461e-001, 2.709092e-001, -2.706611e-002, -6.020389e-002, 8.065921e-002, 5.818091e-002, 2.281000e-001,
	2.211727e-001, -2.379801e-002, -1.549550e-001, -8.463648e-002, -1.009488e-001, 1.198151e-001, -3.215093e-002, 2.484031e-002, 4.669263e-002, -5.186408e-002,
	-4.044378e-002, 3.741226e-001, -4.625590e-002, -7.008833e-002, 2.715332e-001, 7.253677e-002, -1.540249e-001, -5.444902e-002, 1.062258e-001, -4.431628e-002,
	1.003148e-001, 1.514570e-001, -7.390296e-002, 1.722050e-001, 9.112848e-002, 1.136233e-001, -2.420754e-001, -7.513706e-002},

	{-1.198108e-001, 8.001775e-002, -2.238448e-001, -6.186507e-002, 2.551730e-001, 7.281267e-002, -2.212180e-001, -8.906656e-002, 5.535178e-002, -4.111233e-002,
	-4.009255e-001, -4.735281e-001, -6.857664e-001, -4.104898e-001, -2.481035e-001, -2.553114e-001, -1.542137e-001, -7.432951e-002, -1.738957e-001, -1.705580e-001,
	1.773731e-002, -2.796592e-001, -3.256621e-001, -3.162463e-001, -2.553352e-001, -2.618913e-001, -2.479683e-001, -1.934264e-001,
	-1.024437e-001, -1.168724e-001, 2.521902e-002, 2.241547e-001, 2.225975e-001, -8.932047e-002, -1.108719e-001, -9.354273e-002, 1.843812e-002, 1.897321e-001,
	8.759052e-002, 1.303309e-001, -1.396661e-002, -1.325225e-001, -7.446583e-002, -9.841059e-002, 2.524889e-001, -1.352596e-001, 2.386146e-001, 1.020156e-001,
	-1.040031e-001, 1.393910e-001, -2.347570e-001, 1.698315e-001, 7.223123e-003, 1.634607e-001, -1.702181e-001, 2.361579e-002, 6.305707e-002, 4.411709e-002,
	1.036364e-001, 9.770210e-002, 6.834044e-002, -8.186639e-002, 1.805059e-002, 1.789998e-002, -6.390646e-002, 3.028655e-002, 7.400962e-002, 1.688651e-001,
	-1.520198e-001, 1.130231e-002, 9.801212e-002, 2.119976e-002, -5.013026e-002, 4.294083e-002, 2.038461e-001, 1.713936e-001, 9.245121e-002, 1.050265e-001,
	-8.121145e-002, -2.330759e-002, -1.528927e-001, -7.429896e-002, -8.510395e-002, 1.994835e-001, 1.234919e-001, -2.718114e-001, -3.027020e-002, -5.931144e-002,
	-5.370518e-002, 6.793475e-003, 6.954490e-002, 9.724233e-003, 8.793584e-002, 1.066959e-001, -2.240996e-002, 7.912806e-002, -8.529264e-002, 7.018470e-002,
	1.483217e-001, -1.068875e-001, -1.275950e-001, -1.108744e-004, 1.367653e-001, -5.008614e-002, 6.789246e-002, -3.413856e-002, -1.900812e-001, -2.474472e-002,
	3.676401e-002, -2.385851e-004, 4.538273e-002, -9.413566e-002, -4.502081e-002, 9.105097e-002, -1.480871e-002, -1.005322e-002, -7.799615e-002, -2.788337e-002,
	-2.523618e-002, -1.053599e-001, -2.233589e-002, -9.054682e-002, 6.407124e-003, 1.293311e-001, -2.889570e-002, 2.497928e-002, 6.690491e-002, -2.677065e-001,
	9.562370e-002, -1.049172e-001, -6.272366e-002, -4.538482e-002, -8.854112e-002, 2.457922e-002, 1.331847e-002, 1.460529e-001, 2.957650e-002, 7.539967e-002,
	-1.930814e-002, 1.164832e-001, -7.250500e-002, 1.808341e-002, -9.388467e-003, 5.128887e-002, -2.524056e-001, 6.652000e-003, -1.693551e-003, -2.104873e-001,
	4.503610e-002, -1.520697e-001, 6.434911e-002, -7.626127e-002, -9.297372e-002, 7.466703e-002, -1.035688e-003, -3.285337e-002},

	{-1.602715e-001, -1.373161e-001, 7.001819e-002, 8.046898e-002, 3.067186e-001, 3.778130e-001, 2.668376e-001, 3.312282e-001, 1.595296e-001, 9.900336e-002,
	-1.948625e-001, -3.125211e-001, -1.416613e-001, -1.746783e-001, -2.676266e-002, 1.820708e-003, -5.523939e-002, 9.900983e-002, 1.558188e-001, 2.426783e-001,
	4.046316e-001, 3.636847e-001, 1.532160e-001, 1.117410e-001, -1.044365e-001, -1.754941e-001, -2.258229e-001, -3.460649e-001,
	-1.985102e-001, -5.577850e-002, 7.376672e-002, -1.278415e-001, -2.181726e-001, -1.016761e-001, 2.319729e-002, 1.551001e-001, -1.146426e-001, -7.968576e-002,
	-1.242995e-001, -1.858612e-001, -6.005524e-004, -1.027284e-001, 1.235066e-001, -5.407416e-003, -7.131495e-002, 1.923696e-001, -4.300631e-002, 1.218171e-001,
	-2.490870e-001, -1.292957e-001, -4.240925e-002, -1.322768e-001, -3.262195e-001, -6.196717e-002, -1.872260e-002, -2.667714e-002, 4.281412e-002, -1.024655e-001,
	-2.541927e-002, 9.327379e-002, 1.409290e-002, 8.699317e-003, 8.977157e-002, 1.842328e-001, -1.026045e-001, -1.011698e-001, -4.308624e-002, 2.491452e-001,
	-4.818195e-002, -6.378394e-002, 6.460024e-002, 7.202646e-002, -1.124858e-001, 2.733504e-001, 1.255458e-001, -8.987280e-002, 6.570069e-002, 4.182159e-002,
	-2.542322e-001, -3.685529e-002, 1.884194e-002, 5.187722e-002, -9.266362e-002, 1.463248e-001, 2.449751e-001, -7.846687e-002, -2.426494e-001, 1.822780e-002,
	-7.489093e-002, -4.099624e-001, 1.980872e-001, 2.642700e-003, 1.092542e-001, 6.148890e-002, -1.662453e-001, 1.533045e-001, -1.758955e-002, 7.781494e-002,
	6.322117e-002, 4.068015e-002, 7.101423e-003, -9.007425e-003, 3.974503e-002, -3.130462e-002, -7.723350e-002, 2.102962e-002, 1.635228e-001, -6.825475e-002,
	-3.255888e-002, 8.807119e-002, 3.184294e-002, -5.565070e-002, -9.596857e-002, -5.725624e-002, 9.432754e-002, -5.628856e-002, -8.383036e-002, -1.563590e-001,
	-1.677382e-001, -1.690476e-002, -6.164030e-002, 2.817801e-001, 1.386886e-001, -7.730456e-002, -1.518561e-001, 9.598368e-002, -1.508376e-001, 2.419099e-001,
	6.379028e-002, 1.704819e-001, -5.628662e-002, 1.665060e-001, -1.019252e-001, 1.480862e-001, 1.476345e-001, -1.515630e-001, -9.059003e-002, 3.452060e-002,
	6.852944e-002, 1.062581e-001, -1.703677e-001, -2.693962e-001, 1.241075e-001, 9.198822e-002, 1.062240e-001, -5.973245e-002, -5.512084e-002, -1.475472e-002,
	1.129326e-001, 3.748265e-002, -4.465674e-002, 1.474046e-001, -1.845774e-002, -2.966638e-003, -7.587323e-002, 3.199876e-001},

	{9.829946e-002, 1.837635e-001, 3.149377e-002, 9.072261e-002, 1.111819e-001, 1.160547e-001, -5.184967e-002, -7.306411e-003, -7.057216e-002, -1.533610e-001,
	-2.257426e-001, -3.485593e-001, -3.958591e-001, -3.738122e-001, -3.036060e-001, -1.848639e-001, -1.006357e-001, 1.671095e-002, -2.302287e-001, -3.316864e-001,
	-1.090719e-001, -3.750148e-002, 4.029064e-003, -2.019156e-001, -6.563337e-002, 2.972353e-002, 4.282261e-003, -4.642981e-002,
	4.993035e-003, -4.379744e-002, 3.237491e-001, 9.070880e-002, 2.070599e-001, -2.722466e-001, -4.381106e-003, -4.735829e-002, -2.782400e-002, -3.301783e-001,
	1.024177e-001, 1.731394e-001, 3.228904e-002, -1.265758e-001, 1.717132e-002, 1.738640e-001, 1.858044e-001, -8.569480e-002, -2.055063e-001, 3.530958e-002,
	1.482912e-001, -7.500542e-002, -2.747919e-001, 1.199375e-001, -2.043908e-001, 4.720299e-002, -2.404158e-001, 6.736838e-002, 1.588317e-001, 8.616416e-002,
	2.201334e-001, 4.873899e-002, -1.098592e-002, -6.150420e-002, 4.981880e-002, 1.525249e-001, 1.810460e-001, 1.835984e-001, -2.432803e-002, 8.657769e-002,
	-2.155695e-001, -1.589987e-001, -1.136857e-001, 1.034267e-001, 3.330827e-002, 8.086699e-002, -1.324930e-001, 1.274427e-001, -1.315007e-002, 6.120569e-002,
	1.004265e-001, -1.611263e-001, -1.784475e-001, -3.334871e-002, -6.921110e-003, 1.999431e-001, -8.753063e-002, 2.710043e-001, -8.991258e-003, 9.312314e-002,
	1.281214e-001, -1.048223e-001, -6.398761e-003, -1.493302e-001, 1.899249e-003, 3.215168e-002, -1.573029e-001, 5.389814e-002, 1.191019e-001, 2.176454e-001,
	7.973862e-002, 5.385375e-002, -1.782359e-001, 1.540684e-001, 2.960294e-001, 2.708969e-001, -1.307255e-001, 5.525009e-003, -7.709657e-002, -1.393210e-002,
	1.057969e-001, 1.927825e-001, 6.715989e-002, 8.664595e-002, 1.503298e-001, 5.533936e-002, -1.834064e-002, -2.031218e-001, 1.210563e-001, -1.517672e-001,
	7.269638e-003, 1.526630e-001, -1.675227e-001, 2.195352e-001, 2.462293e-002, -1.799962e-001, -9.631783e-002, -4.253319e-002, 2.260564e-002, 1.682141e-001,
	1.378389e-001, 1.691777e-001, -2.146628e-001, -5.810012e-002, -7.799977e-003, 9.912097e-002, -1.434098e-001, 6.307257e-002, -7.373796e-002, -2.094323e-001,
	-8.069944e-002, -1.740138e-002, -3.458109e-002, 2.721506e-004, 2.264863e-001, 9.274498e-002, 3.024489e-001, 3.012960e-001, 1.679933e-001, 1.420950e-001,
	-8.125661e-002, 6.593426e-002, -1.559570e-001, 1.781715e-001, -2.059822e-001, 1.956202e-002, -1.784439e-001, 6.837584e-002},

	{-1.386476e-001, 2.818102e-003, 1.507565e-001, 4.174940e-002, 3.024127e-001, 1.270291e-001, 1.456760e-001, 2.196107e-002, -5.493729e-002, -1.022315e-001,
	-1.039641e-001, -3.646995e-002, 1.113740e-001, 1.708607e-001, 1.808930e-001, 1.676363e-001, 8.100907e-002, -1.880045e-003, -2.692517e-001, -1.641486e-001,
	-9.872308e-002, -2.639793e-001, -3.556730e-002, -3.775452e-002, -1.557493e-001, -3.093644e-001, -1.001362e-001, -8.966401e-003,
	6.527521e-002, -4.613216e-002, -5.278237e-002, -8.149032e-002, 2.034717e-001, 8.112936e-003, 5.605298e-002, -1.249458e-001, -5.632915e-002, 2.562777e-001,
	1.607219e-001, 1.693572e-001, 3.919099e-002, -2.436871e-002, 7.267322e-003, -1.179938e-001, 4.276821e-002, 1.254830e-001, 4.189856e-002, 1.131547e-001,
	-2.868331e-002, -9.056755e-002, -7.777758e-002, 2.460883e-001, 8.292741e-002, 1.660466e-001, -4.556935e-002, -1.522032e-002, 2.062374e-001, -2.295796e-002,
	-1.994907e-001, 3.041684e-001, -8.341679e-002, -2.580816e-002, 4.784740e-002, 2.663935e-001, 5.512599e-002, -9.300099e-002, 1.734986e-001, -3.190998e-002,
	-2.404358e-001, -4.782287e-002, 3.558232e-002, -6.052050e-002, -4.493773e-002, -1.395255e-001, -7.340296e-002, 2.550125e-002, -1.306950e-001, 2.724212e-001,
	-1.045956e-001, -1.254698e-001, 1.160573e-001, 6.300098e-002, -4.464131e-002, 2.423546e-001, 4.223628e-002, -1.534895e-001, -1.554947e-001, -5.516285e-002,
	-5.708405e-002, -1.122879e-001, 1.674089e-001, -2.419026e-003, -2.511152e-002, 7.714678e-002, -2.169441e-001, 1.775296e-001, 1.249117e-001, 2.230536e-001,
	1.580651e-001, -5.075854e-002, 1.480742e-001, -1.143473e-001, 1.871930e-001, 2.318655e-001, -1.751141e-001, 5.904040e-003, 1.059327e-002, 1.991650e-001,
	1.588640e-001, -6.669335e-003, 3.100764e-002, 1.917662e-002, -2.895027e-001, -3.715241e-002, -9.143429e-003, -2.645873e-001, -1.164078e-001, -1.731861e-002,
	9.426303e-002, 1.024069e-001, -1.423505e-001, -1.928904e-001, 1.070046e-001, -2.128211e-001, -5.983151e-002, -1.281896e-001, -3.263945e-002, 1.787845e-001,
	8.884460e-002, -5.454066e-002, -2.423736e-001, -6.765839e-002, -9.148962e-002, 1.908902e-001, -1.025676e-001, -6.977847e-002, 5.739120e-002, 5.607420e-003,
